{"biases": [[[1.183645377912694], [1.541071452072365], [-0.5482142865053086], [-0.4263011186224831], [-0.4193485258871833], [1.005684147338177], [0.5139337603773871], [-1.740199316855182], [0.2830696339526166], [-0.7689200921071063], [0.8767521961777575], [0.02158526542545037], [0.10113835382429517], [-1.4448127233825374], [-0.3003703116572324], [0.8038395420201414], [1.1603425521258093], [-1.2852449693928831], [0.4339771733611693], [0.67754121549618], [0.5042476753583696], [0.893494416269056], [0.2141668562127046], [0.7299279107999567], [0.8575803695752187], [-0.5268023763350774], [-0.5703622665320027], [-0.4116065213109033], [-0.7950273792161265], [0.7595001398185317]], [[0.755187651383335], [-1.3309948448868147], [-0.09940448025636942], [-1.2516968665340102], [1.3901510117598836], [-1.0083382770901905], [-0.6247002897855066], [-2.996847460934992], [-0.6100039812812189], [-0.46931745195645214]]], "cost": "CrossEntropyCost", "weights": [[[-0.08022802285534017, -0.5887318783074881, -1.2016552121659911, -0.42962746975798083, -1.1993058384088833, -2.425902261768867, -0.8036099992069444, 0.5582040832527744, -0.5799137093990726, -0.588724745670351, -0.12996135001459488, 0.6824265337705409, 0.40880677979204744, -0.770624993653892, 1.2293480553940754, -0.2612062368080269, -0.23624703418637016, 0.14887789280113842, 1.1739970623898093, 0.15169331340764428, 0.4326039311280536, -0.6739694829519265, -0.8529177191490176, 1.181203492240977, 0.34238702722587505, -0.37442040853665515, 0.058496134203502116, 0.2345734072014064, 1.6915945922522762, 2.0874402045386207, 1.4470273897317412, -0.8025246898314089, -0.2384458405000591, 0.06753145784350617, -0.4246178244940087, 0.5214672458311059, -1.2034557946057503, 0.9722741023407778, -0.6824298631205284, -1.6384864532889583, 0.8737331571674136, -0.2256970921937357, 0.11105793316151355, -0.9352772617328609, -1.9862649000889128, -1.3999825912449744, 0.8687404576354915, 0.9419580064923504, 0.579329174595919, -0.7735408338226474, 0.5485891929117969, -1.5474217333510798, 0.25712085577146354, -0.7719618161679086, 0.40761130016379127, -0.13794963933287027, -0.7761105492061331, 2.8617215225302375, -0.43592008785149017, 1.0900837299774553, -1.0911000628208969, -0.12799901428744231, -0.19408307408494652, -1.2529248837803326, -0.926697833669514, -1.1499112859748868, 1.7044672455817602, 2.5748177382347017, 0.4526514827362282, 0.45477200214384045, 1.0156688089057002, -0.2266498225513905, -0.1420855125309087, 0.012054915498888508, -0.9119482381641494, -0.22724542619330593, -1.0878707040479398, -0.2842932995715171, -1.0794568950975827, -0.5264134665602765, 0.9079048243646003, -1.0164915978110953, 0.12951325381728923, -0.209037583276448, 0.08693537834047341, 1.5538204520665801, 0.46755638265075133, -2.044326555873294, 0.511429942431886, -0.31373406481416055, -1.1887138939698163, 2.103406363624946, 0.4999092166543137, -2.8510372480344137, -0.3160218365272323, 1.2254257818379102, -0.9137769535398431, 0.8354131406109604, 0.3663659784469594, 0.7136424086265202, 0.3202687210583148, -0.9643769639245103, -0.1067645114806008, 1.537132777554846, 0.34061490876506106, 0.5196899736471465, 0.7248045447777745, -0.22001817807065077, -1.2386341154769325, 1.9165780700925046, 0.05354860380970587, 0.4433780301530309, -1.1735691453139057, -1.1171606883655714, -0.8887895174525976, -0.6228485590008341, -0.4981527282357665, -0.5300615722336156, 1.3757635538761956, -1.512639379518087, -0.39829694343765776, -0.08810733503948019, 1.4277884788510808, -0.42412813423470486, 0.08433090814439609, -0.20685599022651782, -0.8813740315832802, -0.21711539642613933, -0.056402814261638616, 0.19182820560828437, 0.5690104522990312, 0.662899033281289, 0.34385918368863644, -0.6385234135612504, 0.6101179295087331, 0.183323819006701, 0.6539859697385049, -0.6074664187299063, 0.21449414492943386, -0.9181392090915694, -2.560277783104395, 0.686337758804924, -1.7123486723310553, -0.983628854609498, -0.27790630592074345, -0.5248904442805873, -0.140521599047771, -1.807678076525585, -0.4240311916811604, -0.4660350304657363, 0.1988426386239572, 0.20571501655888247, -0.7761798483615385, 0.006009708667173568, 0.2521571692687792, -1.3073331417010499, 0.6951357474041292, -1.4123213902847582, 0.23393007916279474, -0.2749129937427152, -0.15668964134732025, 1.3266074099287068, -0.9019345938473111, -1.1715482863440385, -0.4905075295880774, -0.2530269000631775, -0.9481146441468202, 1.0552775194118975, -0.4827830523670275, 0.25340014270504396, -0.887865150930684, -0.5842356269147079, -0.43933417778737344, 1.7926830371505245, -0.029529582822978694, 0.7087788645347365, -1.325787867516998, 1.1175629606989825, -0.21048564549299112, 0.35588297348613773, 1.0220049198132752, 0.5757431563440716, -1.1906303664167643, -0.004476888861115198, -0.9496858874900933, 0.0389631411050993, 0.6989937736635186, -1.071974433548025, -0.14445903453691403, -0.8227890505953948, -0.173425239930221, 0.75135561240563, 0.30810573077844117, 1.6965646903827496, 0.6696565029040538, 0.06084804738596651, -0.3471314943203868, -1.1340912795333873, 0.42238444860956664, 0.05779734355874447, 0.7947249364614243, 0.8303055256463666, 0.036738795177260135, 0.7308676372882844, 1.1420397642391373, 0.36697079786942444, -0.4728057404426443, 1.0762243258683162, 0.20661865864165668, -0.28963827712795953, 0.18795858021051476, 0.6410005682333813, -0.19314988238715292, -0.12026882626147986, 1.0195348480677164, -1.0093949188671625, 0.15430744292462115, 1.332492190874173, -1.7665765434458702, 0.6127527935263645, 0.866622646829083, -1.559923988206506, -0.8376717531115481, 0.9162351575798987, 1.6023900022919857, 1.7644501870828022, -0.12962492028963735, -0.4300630425286278, -0.21903074849589405, -1.608542240991486, -0.8379010780746562, -0.2899088635403613, -1.2890379941501235, 2.2091569195290477, -1.017701812820074, -0.16867322231342455, 0.1264980769135437, -0.09839373126367484, 0.6227040091283869, 0.5272199343418591, 0.08847110427945579, -0.00629402160004514, -1.2522234190153985, 2.2725950035728046, -0.14570865375624664, -0.1724026730519322, -1.9756613308676112, 0.43250716027321157, -0.498764665152427, 0.4322777556707052, 0.7603046364883502, -1.0113983380158456, -1.064898984540228, -1.1362274239197072, -1.759312338498983, -1.0868548159846962, -1.3393376165663624, -0.3815913805318532, 0.7936862390380599, 0.007968138463585, 0.4438908570076635, 0.6931456356747596, -0.5418090095204415, 1.0453592205354603, 0.06610574323796033, 1.04358217205999, 0.5504165699519733, -0.6662208344380706, -0.18264885783654367, -0.8363478987602234, 0.7806296293686806, 0.9599596781214226, 0.6082628330608038, -1.6048662541829628, 0.5968538023312896, -0.5910667675911332, 0.778313344192223, 0.21991935657317604, 0.27560676672180473, -1.8253772041181797, -1.6395836589342931, -0.6599256254600016, 1.394203157751237, 0.4793612084507077, -1.2382992633805288, 0.9568193625407185, -0.8758125539257923, 1.5743759931930472, -1.0481164836037062, -1.0596553556796229, 0.6272774977937423, 1.3957924589882482, -0.0380669891279523, 1.049980224399141, 0.677950458575369, 2.332886533208032, 0.41845993471993476, -0.4195769594029971, 0.34321263024744847, 0.8328479944339422, 0.555661525399048, 0.5917946368801769, -0.49635556695960115, 1.2653057910791892, 0.22892246065558933, 0.017018637131374564, -0.05875074920027762, -1.4922747141184791, -0.800879148253296, -1.2100043913241447, -1.357592564018625, -1.968663857618612, -0.5021874535797745, -0.43398006347961193, -0.7913402540950407, 0.43520457977693733, -0.8182665633276162, -0.14765258402490664, 0.2870564703196725, 0.23329303453995484, -0.14002541462979917, -0.7755681496765736, 1.9139174134443382, 1.6660850510221366, 1.235930064696275, 0.12090102315975744, -0.46755874079986903, -0.45249254080529977, 0.3897862923674321, 1.0979911959068571, 0.5079673328515366, 0.9069565361970222, -0.5398045981976353, 1.7344267450467448, -0.19783116540079043, 0.2719419277315969, 0.9052746071059048, -0.23155400310634802, 1.5397355898921266, 1.200828210479599, 1.3193766837927225, -1.19851376097491, -0.2034342865327423, -0.43426732162182397, -0.28278121024383757, 0.040458247824507264, 0.8026126732405822, 0.26027364594078123, 0.5971730923611988, 0.0510322590579249, -2.047632329252414, -0.3593094672908651, 1.7044556920627303, 1.0904103905641143, 0.9501930283760239, -1.0345941071461338, -0.16297280607827466, -1.4741575707769263, -0.12506607630491778, -0.9596089615680825, -0.7137410167800053, 0.6274963903784958, 0.9225711813214051, 0.09099407886788384, 0.5140581643071603, -1.0665032528109417, -0.4642102454146832, 1.9564190999261841, 1.0536682387590055, -1.745195572047791, -0.7446675606418156, -0.8546565109927113, 0.9164247787936296, 1.1615068556966435, -1.8039140204254007, 0.33399470352096133, 0.22144719526081982, 1.5213250584296574, 1.391852665561078, -1.6800547967020771, 0.7180520887647797, -0.15643633576866658, -0.38546474896178856, 1.9909000766057172, -1.3490238163952408, -0.8397557779302303, -0.6987014092074374, 0.16202101364636812, -1.5862794178512212, 0.7004137429593931, -0.29211147306102814, 0.1771385332701913, -1.9239632971212166, -0.42737660589473264, 0.012748232330436073, -1.0885044352413182, -1.744036816153555, 0.24136259878871574, 0.5504976755015287, -0.24258319391914576, -0.23601618566323349, 1.1980525890432745, -0.6465751240633487, 1.8804547566752223, -0.7652204191206307, 0.44887810591700905, 0.7481336580916024, -0.20816617207268834, 0.132032594174994, -0.5964390827908268, -0.7221105454300085, 1.8996064777137454, 1.8069461153861972, 0.661874223002979, -0.12148769951952734, 0.09938403159521457, -2.131639862351235, -2.466491646139139, 0.9970932456900263, -0.07593095401532943, 0.09738441396713723, 1.0964524223565029, 0.6918823936243805, -1.3493927769709584, -0.3182686713541421, -0.6055603652123078, -0.549858742127874, -0.3436887917458483, -1.4979360135474564, -0.7201644714362533, 0.33075300070238856, 1.666249053186678, -0.6940022944750431, -0.13385455543065128, 1.025685405991556, 1.3315693916743385, 1.259018862199953, -0.1888210176931052, -0.48038656960123455, -1.4791297708106137, -1.464209575535259, -0.6231038570429718, 0.12351733877972486, -0.5898436331254556, -1.6608009544355113, 0.4153439518025863, -0.7913079313851105, 0.42011393388073065, -1.7728699931994096, 0.8058231069080873, -1.515250146728937, 0.5354067039721568, 0.22457031576102912, -1.099275674205736, -1.2522803919461702, 0.9492118206320133, 0.01829124308983046, 0.6389325183735154, -2.7955233744436603, -1.1526035467803188, -0.11977051472053184, 1.787065355673856, -0.8225124726543925, 0.3712490775561685, 0.9365272860367543, -0.4192070850538845, -1.84927079676085, -0.16752205212043336, -0.47828125014178247, 0.09101180685446124, 0.9444316711817997, 0.5841205756752106, -1.9143183515140094, -0.20386566348345592, 0.6436974622577049, 0.4923239625172696, 0.9259665455820933, 0.6364137896902058, 0.13070235836062266, 0.6283664861576314, -0.5972366956177293, 0.7744354717925588, -0.4462276146457357, 0.12462885232464545, 0.37544875701455604, 0.8243812148008305, -2.0266467096770144, -0.6220935754175589, 1.421433670409814, -0.7531855355911705, -1.043923239793929, -1.4597259117209802, 1.1006248572221689, -0.7185008435607142, 1.4642829589747708, 0.5507509292310864, 1.6109429169350111, -0.08701640644218578, 0.32034555608036763, 0.9842539251063501, 0.4327072715469375, 0.3173415991140586, 1.4479429848530558, 0.0499818115500974, 1.4275965073029686, -0.09454253238624792, -0.6364195829172644, -1.0841833850281895, 0.41916930946794406, 1.5865584468119807, 0.7483184010502242, 0.04232787691006628, -1.0563836725457365, -0.816285883168077, 0.755447818280415, 2.1415920442565572, -0.2044263089857451, -0.33930709336454257, 2.74159075292969, -0.06619363940726251, 0.6035221750888734, 0.5911285361484251, -2.097303095857313, -1.8045182355114755, -0.18112788848101755, -0.10521690872063198, 1.0848278002879674, -1.3463657648063836, -2.0324818972602348, 0.3416782761647548, -1.430185749866036, 0.09305746419717127, 0.6103449225708354, -0.5669536930648645, -1.1034572716018043, -0.5154251094282879, 0.266484800907271, -2.4528713446371073, -0.526513045257894, 0.6303334296047689, 0.32775411169786184, -0.9766496964373987, -1.0395092891328541, 1.3270119552493846, -0.8405882497751184, 1.132861629351384, -0.8134536075658342, -1.7244434542777216, -0.35993187139778315, 1.1789974299337898, -0.16986893484147852, -1.1515791141567555, -0.720982850011061, 0.3175057453963889, -3.2369219432050564, -1.0129465955090975, -0.4511426111837166, 1.384061254843411, 0.09085394436740435, 0.663403066417918, -0.6551273441966088, 1.1388105556176191, -0.18495407823395116, -1.165797108319178, 2.2426179882963826, 1.7222361096975067, 0.6421611459710176, 0.1608903887581162, -1.5218686908548784, 0.6235395761602069, 1.4306653869557027, -2.184957579534883, -0.12380463787090563, -1.9430822579339144, 1.088603175048321, -0.9272503660229006, 0.9179819699643814, -0.45553590911190595, 1.6632672961669819, -1.4381721721328549, -3.366451680889527, 0.9333593499663149, -0.6582219610046857, 0.21756436382051852, 1.1154099931615988, 1.333676215241303, -2.3234429175232756, 0.3598409626570154, 0.439532647480676, -0.38780236096867304, 0.23056296638450513, -0.11643743827213125, -0.5007032643441541, 0.78502485689625, 0.23208435532704635, 0.22153782209207806, -0.22841670795096794, -0.5786400768247022, 1.047558370148664, 1.5639441471290594, 0.7740596612809683, -0.8625013433359543, 0.6617229180448594, 0.7538735332738433, -0.7209533703769804, -0.1952172216354284, -1.0271653945690231, 0.5953925443089051, 0.8763248070451448, 0.23476824070605487, -0.8102288887285702, 0.672888104861184, -0.06000325068863632, 0.04392478368211111, -0.20060853410889182, -0.7586030194573442, -0.17322987333237844, 0.6367123807822673, 0.8075792760569247, 0.3731553758763725, -1.0116283946462399, -0.05231707880871554, 0.23709855654289014, -1.1069364869541354, 0.4186628508438194, 0.07889539340746286, 0.058482129874497975, 0.45356258970514984, 1.4889232547576239, 0.3476131130332667, 0.4607739706293974, 0.07252079327410173, -0.07632772320503445, 0.18279193110146094, -0.030173163544617913, 0.7020381502574577, 0.05697434975893891, 0.04948112746358363, -0.7681634163864347, 0.4760576217629703, -0.22825506127659081, -0.5547778546544425, -0.27255849796730935, -0.5021917838169557, -1.1048838702521355, -0.7642344810264055, 1.2504501069274605, 0.40949322963008744, -0.021434807596757862, 1.2804885673800013, 1.246258153677678, -0.5460745360101882, 0.38484664583653133, -1.1197516229883284, -0.319490119334277, -0.086103992424645, 1.4052780236475415, -0.7922254493631096, 0.30970837718442823, -0.10655332227794802, -1.364729196373039, -1.3743159848064417, 0.4301680617091618, 1.3574796699934484, -0.45907256039133965, 0.28730262891606123, -0.17865498758577672, 0.08290351326945862, 1.3145232981098718, 1.3701165863447953, 0.21173454397131186, 1.5395107743668544, 1.297855495678821, 0.752293921102699, -0.5748526548719733, 1.7212405253730794, 0.048365740709924186, 1.0583113395630885, 0.7470669085986223, 0.6589756483178592, -0.5445070567490772, 0.30973337220466174, 0.11955626816660216, 0.12080739627823768, -1.845355932979292, -0.9951785280852901, -0.42675258510779074, -1.4294242664287384, 0.7716626367437295, -1.11532100961192, -1.2906705955759779, -2.117661608327017, -1.0371034759339228, -0.26329375277463196, 0.24416409008901982, -0.30840687696226743, 0.2553438364384947, -0.8027977267481456, 3.0393694175459243, -0.8337667258929331, -0.5748813357726288, 1.121791705840659, 0.5205516502983988, -0.21829751141520204, -1.481901790915762, 1.009494730323845, 0.4849538221099344, 0.2801392815908448, 0.17979942056091042, -0.6168373646348947, -0.616239523422052, -1.058244716920915, 2.1472186788561705, 0.9551583584547384, 1.3449122834418477, 0.5617206302298824, 0.513992792595459, -0.07759867906519094, -0.808847487066904, -0.9288369849967096, 0.5551900338842651, -0.7201241394291967, 0.07086829021075429, -0.23193340567329704, 1.3897738709927252, 1.7033836042133472, -0.4425162018088227, -0.24379945839665965, 0.28858776611725273, 0.1665212550637018, 2.039816262576256, -0.058060695900213954, -0.1989528778120958, 1.803908759787309, -0.3317748757640469, -0.24137389481730126, 0.3579556270386265, 0.8674197242051694, -0.7478756328971801, -1.288346569788679, 0.013864830970928735, 0.6345445551748554, -1.272953670746212, -0.6259487797287723, 0.04673830834296818, -0.4559273694022447, -0.5050768804559235, 0.5481255251983926, -0.5405762754867665, 1.7444517932255725, -0.09046997204742677, 0.4810613633585495, 0.38068169414545966, 0.33598756333914404, 0.4197936071951624, -0.9470733437670354, 0.015777260757153258, -1.1295259249512186, -2.459144650197245, 1.2282168388002968, -0.9871831530249641, -1.0452489797301536, -1.263501916651758, 0.4960227605471186, 0.4331334208904065, 0.11910084793224991, -0.575251723737798, -0.8522426443857688, -0.09087675801355048, -0.009810470669887045, -2.0239935028773477, -0.27329279498170234, -0.9252508446652278, -1.5300372579987669, 0.2727753318343246, -1.3726043335119957, 0.35953307729282497, -0.7599042466046738, 0.507767562984523, -0.6441871674350497, 1.4217426600098813, 0.14940560056518937, -1.2160007633830028, -0.7928428774968977], [-1.160501233022765, 0.19776414860172473, 0.9378002535954665, -0.2703341619968043, -0.3398109815706983, -0.437444888385574, -2.879786932741612, -0.08969073693368183, 0.11362830666759721, 0.8492454799024268, 1.090946629162879, 0.8339011756695908, 0.6767558430718714, -0.9795293956580079, -0.6094850661771183, -0.06306639951034043, -0.8182106362467539, 0.47778589225404827, 0.5207826570744417, -0.7482298644401275, -1.2752824025775156, -0.8113407699174243, 0.6006294612122421, 0.6442224823806065, 1.8244251580648332, 0.03284349831715995, -2.11151181964412, 1.0393754287523276, 0.9073310421302939, -0.9879856081565518, -0.7829357211359351, 2.462248944319161, 0.6275543598815269, -0.4660220924019823, 0.28579642276413686, -0.35032768894850314, -0.21734178020597, -0.7122884195256866, 0.8047386813361099, -0.05833500631637963, 0.4006411112062293, -0.3825817246036501, -0.3226789095860583, 0.5597669185657603, -0.5710510409804338, -0.40494546092559347, -0.06119816167971231, -0.02038589305318223, 0.8995755699993669, 1.1847799163562156, 1.0454516816500175, -1.2019315169776998, -1.1538965280921303, 0.10424586653251339, -0.9907803301909883, -1.290664868795064, -0.04776759038703727, -0.753619401027123, -2.2533949344861672, -1.0749163953778225, 1.384208184900256, -2.2329818931807814, 1.5645723450466429, -2.408188797072367, -1.1678789172390067, -0.17149874832847153, 1.0765134597311528, 0.3839763580496102, 0.05963618813777698, 1.7611844908566987, -0.38122432163165304, -0.06720427123070316, -0.30475548582235884, -1.5686535713541612, 0.5076364099020636, 0.23221011221552898, 0.7860392961352318, 0.1277226068996237, 1.1411628289314513, 2.030007043004607, -0.8983511814109453, 1.1362791953699543, -0.7481330960899069, 0.1492760279287489, -0.13236185163296957, -0.2943100370851237, 1.0892444877565555, -0.9699830734607697, 0.26134466007529555, 1.335519769852713, -0.1468408446535098, 0.5414947755641603, -0.4498819207154249, -0.7704935799701813, 0.9432942692994479, 0.6242847055040682, -0.4568129560471766, 0.1525727456833399, 1.2090739754262065, 0.07917954437386324, -0.6550365905493268, -0.5597805407552886, -0.4475531140208802, 0.4196270129006127, 0.2979884477600564, 0.3353836472552114, -0.17305083250444722, -0.11300380908907454, 0.026650491267223783, 0.12099662643012972, 0.5788326202686259, -0.33571500220254846, -0.5928541143098923, -1.373423683775233, -0.38008605908098547, 1.603351948118, -0.1106614147307114, -0.25962339650514543, 0.039693322289427686, 0.02487722146783413, 1.2042543621671185, 0.13750923634328607, 1.334486113293556, -0.4142235322486928, 0.6605603331893872, 0.14220492263927353, -0.5888000563800665, -0.3930239496350283, 1.4749871706383388, -0.6593136080211601, -0.11754121045995887, 0.27788416219680107, 0.2664270526629436, 0.704004556180367, 0.6853795456507017, 0.17525274568385932, -0.629575925630719, 1.2317770124722955, -0.18369629706154073, 2.1992264046161756, 0.7803189962357834, -0.652954789919914, -1.2433715462577017, 1.6711882182748121, -0.20240548743679002, -1.7112852170162607, -1.914064539767033, 0.5658254381620159, -0.7791251350257343, 0.283822968580665, 0.19586859659091196, -0.2623271011650604, -1.9843049307945402, -0.23889011599834917, -0.10737034086813665, 0.38686391165481343, 0.30378694158192676, 0.5202200302428773, -0.6866344622911067, -1.1015107843766174, -0.7249859846877784, -0.47410839073493694, -0.15139091180715297, 0.38672742782919217, 2.2247841831464634, 0.3934620522298553, 0.5175125401979165, -0.9433421018155991, 1.100855192957546, -0.206909824857112, -0.3658883933660499, 0.6936336187670495, 1.20794000858482, -1.025219133054317, -0.8567374256206585, -0.2775525497872074, 0.6837512976780628, 1.001381760490366, 0.3336484064788553, -1.855700951558254, -1.0403283186992904, 0.6791286725550953, -0.3817082770481815, 1.7330381188747415, 2.4033183025942018, -0.75964221915108, -1.0467872438175754, -0.19896024214460312, 0.05060097121348693, -0.820023925028584, -0.8425260417654934, -0.9481271486029393, 0.4395636097694357, -0.47870597935921966, 0.9002730332859854, -0.5991606311290111, 0.4184971689855053, 2.4007840180539706, 0.14105211516963923, -0.8468093628856912, 0.4991729926367901, -1.9636543221323133, 1.127291437997832, -1.0847606879518936, 0.7955392626133119, -0.7764960068516246, 0.10087790024250023, -0.13733048879388063, -0.5102405057008947, -1.2035403693162592, 0.12617888494458157, -0.5396456356769387, 0.16068362633954042, 0.4547774739179604, -1.5782262414598807, -0.1973577544361956, 0.32014172369906957, 0.25115851976458203, -0.4895503113882471, -2.095547765669195, -0.8459382743380631, 1.0636356994329663, -0.27903015522153496, -1.506021114616149, -0.5061179845867565, -0.7718127896210103, 0.11276278790500663, 0.4047732675972619, 0.4739144827730702, 0.47465742921865894, 2.3578488240701168, 0.2889666764571447, 1.1736454533516942, 0.17484500903766537, -1.4106900749115425, 0.02226043615033996, -0.04638372319241568, 0.4377123841752788, 0.29127799571612, 0.9878186908459705, -1.1291902386680945, -0.37732670967525384, -0.6747476303027058, 0.5174601857921219, 1.4956612970719607, 1.0663497727996416, -0.46794798081771194, -0.1659513560075721, 0.18775934595353685, 0.4045815473744874, -1.0643257155051908, 0.10522221232338877, 0.6324158787482264, 0.5524652016185493, 0.9388529039033525, -0.9053466565122408, -0.8095436006681637, 0.6957557121730121, 0.17432090448419701, 0.4183029460401213, -0.6465391071921038, -1.321092755481276, 0.308915549379195, 1.2844506604979848, 0.07547892692059426, 1.341674331076533, -0.3463807545009416, -0.7911469217816777, 0.7922431896144373, -0.41319033969360613, -0.5733121486773702, 0.4655791471125671, 0.22725251561711315, -0.6946581479672778, -0.6727190553731652, 0.5325316160553064, 0.01271219527164276, -0.8717435694136327, -0.8483744863793592, -1.0566637269135313, 0.18813810744471995, -0.29281254292704545, -0.7144566820078343, 0.5610826674750681, -0.1456400551837843, 0.46382874770467963, 0.8507623394959514, -0.5198925824328555, 1.9056956486468526, 3.786933761496032, -0.3531172455089732, 1.0930612235747885, 1.1643686211087985, -1.1292677970634188, -1.1176185477260208, -0.28376105366133764, 0.8692009860803156, 0.47274524508640375, 0.2426615458369072, 0.9474684399214467, 0.7632846856140352, -1.9545807903479768, 0.8938187478697728, -0.07735769363293442, 0.36507127769304865, 0.21285808986505692, -1.2245704339673633, -0.8583505543056634, -0.410066675823861, 0.3673799867803301, 1.3979624384983926, 1.3960984371969907, 0.9190030793563346, 1.5215517902748084, 0.4925269306732316, -0.9558827899579836, 1.8155849642482935, 0.36967852090639325, 0.7091220830552727, 1.9858637843837217, -1.1410021796442076, 1.3811748390324408, 1.2887779591580026, 1.2405317613329774, 1.2263015795027834, 0.2935913032647362, -0.19725356149792275, -0.3953953863466908, -0.07910565103162973, -0.2461188648684961, -0.13494697895703658, 0.28395248497880576, 0.9941795368319337, 1.0859458714011974, -0.28411355519030695, -1.0725121939900648, 1.8254437706337718, -1.6282034506037215, 0.8749538807891813, 0.08300071986510307, -0.47978066134376746, -0.6166927515124085, -1.1596088222634617, 0.24214968616531754, 0.5629577866850564, 0.024701801951425968, 0.3418569887562836, 0.5255630657343946, -0.960650628256765, -0.7543808059277075, 0.6811053564550323, 0.7511819031201534, -0.02068768365130192, 0.6437945312257266, 1.1142849794019025, -0.008779472725349333, -1.4047666557396168, 1.02525955706936, -0.27172502810831634, -0.6566301079108959, -1.913852677456092, 1.6665098326404175, 0.23103770155309183, -1.4715265523651975, -0.2824945238979405, -0.4009736253324154, 1.3498329595904122, 0.9645947575810571, 0.8094440839484233, -0.7816402843725162, -1.9245799340354255, -0.053133425151774744, -0.4554946074927928, 0.17286130663030336, -0.8536892454061641, -0.9743485427312891, 0.1267643806424327, 0.2602771685856284, 1.2692676501950617, -0.4390102214774511, -0.1599559055385616, -0.028380643192231894, -0.5960469624114946, -1.2440554363009944, 1.2780005162068244, 0.031415019329219945, 0.03667481700978367, -0.06059700000379084, 0.6358692133711518, -0.6745361402172668, 0.2960012605146611, 0.3028265489522045, 0.21446172106925981, -0.714537822237854, 0.4625253455044235, 0.6725212959078787, 0.8183546904665636, -0.33039597717966573, -0.5175933521906649, -0.029608702497710616, 1.3951547261270183, -0.6826435501794137, 1.2197965761074485, 0.07910122025451359, -0.19540068603634217, -0.5942537583856186, -0.8472224677070628, -0.051558855093051865, -0.8618607565476256, 1.1370311253602023, 1.1343542424489548, 1.229053411978729, 1.27525798111588, 1.0710332908861728, 0.1325597881249302, 0.7198790134079653, 0.21988752487884977, 0.8227925564289399, 1.133586052324206, 1.1037109377553278, -0.815620746440433, -1.4781043618194691, -1.1477380580952772, 1.7813665904288405, -1.1690207425009929, -0.9561212821147416, 0.6989803972548456, -0.21341649480814998, 0.21603295572043424, -0.630053849732641, -0.2569610430732192, 0.42191425617550626, 0.4077486153514801, 0.9689411823989603, 0.4697135350797065, 1.0761333888891307, -1.1250070000433028, 0.5448011727533032, -0.4377976028826231, -0.7987797988207733, 2.1350224984323645, -0.11397999040649227, 0.22372800170157106, -0.022053252967624584, 0.4076004017864968, 0.8523436949284745, 0.19145208360541624, -0.5375016753409441, -0.3592888249546592, -0.6758163177149898, 0.08723979834592266, 0.8235274825052307, 0.07389466097235661, -0.71697564490492, -0.2515889859483269, 0.8679004691570237, 0.6799853686904825, -0.47852194765882594, 1.1564527240627007, -0.6137002646348605, -0.43529171061350874, -1.0485346147663996, 1.1054556518727963, 0.15237579649450644, 0.30525845597215234, -0.16699114854129024, 1.522862250256196, 0.07909022841134487, 1.109203659839972, 0.6219684612080698, -0.7403512162285547, -1.8620039678877587, -0.14251539557609283, 0.596814552463884, 2.184766501484281, -2.382212257720349, 0.699777364098343, -0.08444410160614757, 0.4628894690192106, -0.16936539363995085, -0.161344400671978, 0.6884068345462531, -2.2669002859790823, -0.7506101411440799, -1.0131205002340669, -1.9379114709019807, 0.9678398859030664, -1.7204901376957835, -0.10703919068170077, 1.449186994562765, 0.798946415640362, -0.26353830140740725, 0.5860420931521463, -0.31328864677992585, 0.874126223430266, 0.6073274971127763, -0.9340581534496901, 1.5934577984770573, -0.028724531227142972, -0.809066197852087, 0.1863039143902888, 2.028456291697006, -0.4225945762763898, -1.360587674059971, -1.2936897456109604, 0.3936403328722376, 0.2126431335769653, 0.344902892357888, -0.28377925105147817, -0.056159113560461424, 0.6378863819025162, 1.4858626602913918, -1.28120114052531, 0.1992006223032753, -0.04883410756025723, 0.3457706145541547, 1.618311255501161, 1.5146340018856255, 0.9358062622177621, -1.8614659046444026, 0.15310739533392387, 0.6021926519950451, 0.7460146499515609, 0.9571832543805976, 0.9225143229484492, -0.8302716896940561, -0.7503146832469643, -1.2480971213744982, -0.937180089817915, 1.1161590665636667, 0.30282121224049885, 0.9873042277126463, 2.8079371669683577, -0.4157184722667778, 0.5074544752037512, -0.4913926180792344, -1.4882614951727537, 1.5227709801472176, 2.2042427914104543, -0.12170995837974025, 0.7147606758091414, 0.5736521451648362, -1.5098783716396995, 0.26709905618740853, -1.1640882043662142, 0.9283019671055152, -0.022333282997462216, -0.17222691922914948, 0.16338113965695555, -0.39833205506673913, -0.18768207450084098, 0.20130100773425835, -1.3475722539040897, -0.09758318488347072, 0.4410384839495637, 0.5112100274460545, 0.3332478963915495, 1.770384686490607, 0.12202299028947189, -0.4951881853794263, 0.029267606075952936, 0.5418496063346134, 0.2246457719811574, 0.2639321417288149, -0.35889245485790544, 1.2247794390142672, 1.0348023621578952, -0.4258194231336839, -1.4161615718936662, 1.3586388404997287, -0.5109743664632092, 0.827087714473089, -0.10764149905337969, 0.3135833282853795, -0.6972892752315081, 0.7914396996278728, 1.0931317755938483, 0.40665246479775075, -1.6809468448155909, -2.0052003699533776, -0.9722859646430293, 0.041063691240889336, 0.3913852196625213, -0.3102915273742084, 0.3832432004951822, -1.3496997401153528, -0.6814473691475408, 1.3543522120841651, 0.6405198376648686, -0.11778831517356932, -2.2254382215570465, -0.15966913993561768, 0.05478929295607554, 0.8106156023212963, 0.0819282998145785, 1.318113521568079, -0.09598070284880038, -0.19819292129447721, 0.3771983198473284, 0.16353081037610226, -1.7267436188646128, -0.2502831694355545, -0.5024400207374379, 0.46418371650407875, -1.697712860311107, 0.7073512620358096, 0.32546502903541574, 0.23543112124474602, 1.256447493103234, 0.8292286682959846, 1.6162005685017518, -1.8100979154529253, -1.0445249342988918, -1.1921245382659993, -0.5992090339129249, -0.14734153200368535, 0.04292214639203464, 0.30686710029162717, 1.9851728206287498, -0.8313668305066102, 0.894874641085219, -0.27909736679390196, -0.6448302109695053, 1.3127081434816092, 0.6510224503407361, -0.7621437289804563, 1.2177915848245287, -1.1276000123713452, 1.0557599271900455, -0.6964307502409236, 0.5649457835982211, -0.22810660146988712, 0.1127329858906676, 1.1856774881126906, 0.4497733591553991, 0.3338672804889811, -0.1746251328006671, 0.7650813891037324, 0.04622231219314588, 0.42574237330055226, 2.7261836668210826, -0.3693659235785588, -0.7255783238942247, 0.5077591979172926, -0.08565568116283138, 1.7254102296503053, -0.13714439493838518, 0.8812918497717999, -0.08483439020006923, 0.606591201862132, -0.0035915098220808427, 0.5186749005585951, -0.28515416246779784, 1.1417597912331527, 3.2184682627503647, -1.4084618121739165, 0.3229215410505998, -0.5486968477939712, 2.6896188127362817, 1.2614792930237047, -0.05278959162960587, -1.2593820305568786, 0.33987648882939825, 0.012859624522120135, -0.15677482750236263, 0.23276587013296918, 1.1776159852495658, 0.12160396255713493, -0.06646530583827572, -1.6037674596374567, 0.1237211260389576, 0.5289125624450063, 0.04500478513494025, 0.5653598546745824, 0.8442685905161823, -0.8798349781790892, -0.13910479007435303, 0.6490411799693203, 1.6188058270397776, -0.9889823755330318, -1.0549323676149813, 0.23850467904700104, -0.94072227298424, 0.5625522667759904, 0.7210052547165086, 2.1008816170478615, -2.5830105377955612, -0.8031907054509192, -0.7593530171450195, -1.8493662271740716, -0.3168435369628951, 1.4230596544820708, 0.6954234621045434, -1.1143759514494584, -1.5650814518894427, -0.06951299169529748, 0.7144501191132541, 2.1876335972731313, 1.227850525422948, 0.8409453249163599, 1.2299067357131779, 0.5565542681333056, -0.7120620594845349, 0.8373600041184772, 0.8510295875516711, -2.1166206751028116, 1.6240411297835802, -0.6917896664778653, 0.8823569065542644, -0.06984439553172365, 0.1864733810147098, 0.7789849097835001, 0.44692261612248774, 2.732845498360322, -1.0875529164167654, -0.21706732551088193, 0.873314397133918, -0.21588388204717804, -0.19305244269816632, 0.2482959698165089, 1.552706801809357, -0.9521439622626913, 0.3547746403460021, -0.2207049205810199, 1.4780880285280955, 0.6217721522866677, -0.11454583743849851, 0.7499942543488292, 0.20356163244890743, 0.6244585207421105, -0.6432907900524915, 0.3056571014867397, 0.23138039946069291, 0.49242188013417365, 0.9439042898204743, 0.8688558601930066, 0.6241887934273144, 0.6166702196290211, 0.0844061193027675, 0.6359715431184477, -0.8577219231399736, 0.627968936623384, 1.498421950957099, 0.5745639786610746, 2.1273883418332056, 1.7834339623126683, -0.3449762744421517, -0.36849305525966325, 1.4259868271047116, 1.9058817193796243, 0.9332642399958774, -1.145125679097055, -0.8611499710879956, 0.5957931065565819, 1.1362645356696657, 0.4849384618217061, -0.0778120800276276, -0.704486866685116, 1.1651722810227907, 0.6309387918206608, -1.1968670978016307, -1.3161366153962535, -0.6048806525972935, -0.9453120503612112, -0.2776224992004151, -0.18101691395652159, -0.9574021312402762, 0.14609095978048176, 0.24791668480011797, -1.3117300798815896, -0.1813554551586521, 1.4557952737065953, 0.8499485561646861, 1.8721088198907119, 1.6211201756767981, -0.23621896038203022, -1.0742682865817916, 1.3658700923205125, -0.7765960437549922, 0.7731508784022872, -0.3906667183994797, 1.5360882421171556, 1.5536465898651475, -0.5977059177533814], [1.1788787513063876, -0.5599164913537461, -0.0016029018447881373, -1.9851521105349654, 1.8117328930233232, -0.39676394877848725, -0.7239764750602503, 0.3410282796826908, 1.1587903816783158, -0.017760100015673904, -1.4041459300301395, -1.5042605324512315, 1.0974807516992076, 1.6688763327843856, 0.655669427880797, 1.5822123596160926, -1.531452147496477, -0.6826417202638676, 1.1892491467946722, 2.4686689963763295, 0.24360217137387327, 1.814254915457834, -0.2493228915713076, 0.026840680514888002, -0.9746749332442802, 1.4388422854936933, -1.1863546893955805, -0.17392280058080892, -1.0228596286466698, 1.8487876376971895, -1.3828541107627481, -0.0004491164184828589, -0.08823470283518149, -0.2153527369046158, 0.47154461267521003, -1.179997618843322, 2.2835251653267883, -0.8625301296102579, 0.738559876094328, 1.9383014725057717, 0.7044024731373856, -0.7492314405048531, 1.144763484050061, 1.0842066250145939, 1.9594044708407883, -1.2695221695408323, -0.41660647682507884, 0.9194833483748203, 0.1673616207074978, 0.5425409939561419, -0.49688328646273666, 0.6068646819949199, 0.17570384722668317, -0.03443495590926404, -0.3817066366720596, 0.36528612532772664, -2.074087786320497, -0.08176174059958645, 1.9284658964973123, -1.24871625304849, -1.1576329365331794, -0.21530830852997979, -0.8063140547863151, 0.9023953423135517, 0.6166003105398664, 3.0189471955104348, 1.4311307838829015, 1.0096016087630115, 0.9394727412737163, -1.3333990036084415, 1.6523014608721018, 1.329749118829199, 1.2211092846050564, 0.2719997135158589, -0.5768828977744281, -0.5851442016000946, -0.9020150897459901, -0.006851756513051618, -0.4595663529488834, -1.7422993381351142, 1.1320751873347517, 2.553274465584955, -0.43314224158011844, 0.8999860140166822, 0.14727764411496638, 1.207390730173112, -1.4375202812048768, 0.5347416545965764, 1.0599195378877795, 1.4680722113393903, 1.3331369755628508, 0.23282053672272943, -0.10764260035136791, -0.4463557287239282, -0.7832568102036861, -1.1756810098205681, 0.2944693515418546, 0.6289588944467146, 2.066957125820479, -0.7223491910276577, 0.3848058453879969, 0.46476036403978316, 0.5479716116376052, 0.12875896153783284, -1.29280603417167, 0.01559263040794106, 0.3955693884131544, -0.42969015138404293, 0.9262797625314223, 0.15343353394351075, 1.1725897119851625, 1.0440018410012, -0.40452400801848243, -0.1995536849534057, 0.040642679579540375, 0.6584863622792335, -1.0326968062833255, 0.3137707866381404, -0.6257642013155226, -0.4342477564537363, -0.1767851765377725, -0.003482967895476722, 0.0953870571287057, 2.0474914011826, 0.8884586795547396, 1.4940740095804825, -0.02323900317884549, 0.9276974949953645, -1.3861135766416595, 0.7546122006313551, -0.7620197379209354, 0.09620857337161096, 0.4596617799372685, 0.938543918250788, -1.0056979266981352, -0.45951348815274934, -0.8901556011528275, 0.39809725833862436, -0.8190221383138373, -0.21000488737061473, -1.152104025836499, 1.0824695814751073, 1.7275343821731866, 0.6773434620276123, -1.2555464096895994, 1.3079042468875282, 1.3601806020879763, 1.2853177150520836, 0.9250715831184101, 0.688316939952403, 0.9988949266603017, -0.061093073221035396, 0.06834528579707454, -0.3214020134091833, -1.2452740268824536, -1.863829147127034, -1.4552451802106072, -1.2630593717940262, -0.3792709686453093, 0.14312121521363255, 0.4790177142539276, -0.014636841595929055, -0.27721292943644366, 0.37082350108741735, -1.1452464564131897, 1.3604672992210556, -0.7665645511151277, -0.5951154290605088, 0.05036946349640521, -1.7160814745462956, -0.5662593956939334, -0.527016100499807, -1.1006930642214094, -1.7615553299745683, -1.4549832451452862, 0.25322452777196186, 1.3810623319952327, 0.10814346671518643, -0.1437024262632431, 1.078160936013973, -1.6832124565384314, 0.750743190581762, -1.315907311978511, -0.3271712454718692, 0.0888389753418463, 1.7108537895616234, 0.24854087825219404, 1.5338943534593497, -0.7661154467165469, -1.1153153955973045, 0.6921305189081371, -0.21513868510269887, 1.6670580660716734, -0.7598484024915498, -0.24051131533921585, 0.2513401597625218, -1.1554376766186272, 0.7079577396308786, 0.1776946644870941, 1.7955574256146938, -0.025494834279776078, 0.5793891616454383, 0.755605026391085, 1.1551829015239763, 1.5569173152751583, 0.18695618134029549, -0.09088574185953684, -0.5776563200765057, 1.1216094443956133, 2.5080541388728523, 0.6078096068764016, 0.08476432926968411, -0.14407574795716227, -1.2553218422157686, -0.02366641423361818, -0.007453378847800822, 1.123939642361268, 1.9685738270922049, -1.5152909199286597, 1.1312716090622923, 0.10689270579356082, 0.7449308800710481, 0.7586906238987203, -0.1440531167901003, 1.677427892470977, -1.5981470312777821, 0.4626716872993521, -0.030646160479747594, 0.7072186694508885, 0.5058216469026808, 0.5512716876151341, 0.2780514325538894, -0.11239234110824615, 0.20788373465653973, 0.4258894320876971, 0.28738698273841873, 0.7742499321700815, 1.0280880574527986, -0.52173683850134, 1.0921898291158472, -0.283365619044698, 0.30461299647306156, 1.17038105897717, -0.2141022237589483, -1.5116740356177256, -1.304689100067538, 0.3465311332578449, 0.170022058124996, -1.1795437496224392, -0.2559187635432997, 0.6842651425949393, -2.234480193665979, 1.8178525494012119, 1.5066783760440472, 0.282915586947602, 0.14808531464846847, 0.2615775701304928, -1.40478085301652, 0.5024389853189501, 1.4225549729400728, -0.17332129078609326, -1.0727546696658588, 1.6133720414312303, 0.6162796338745771, -0.36025861059179404, -0.8040164548210572, 3.234509350784969, 1.5535561633042614, -0.2913193588608814, 0.5813098859675874, -0.3054227877278313, 0.8686908948741238, -0.36258033884094365, 0.5559226460456607, 1.0167541212539177, 0.44712264584300276, -0.44634808299314577, 0.9097575620526247, 0.7744836244758203, 0.5945531896315407, 0.2687192247371519, -0.8114053481130991, -0.29965643364347855, 0.33502300383410033, -0.2769828324463781, -0.6306969570719356, 1.0508224562196389, 0.25846325355578154, -0.764218416514203, -0.11734630103142508, -0.38323898322842814, 0.48932527295183115, 0.34495639584292975, -1.29229622427679, -0.5190398770397427, -0.18049805954281517, 0.06268942939266771, 3.1731983018085614, -0.9608869107289266, -2.728892094862241, 1.0917345830569227, 0.8451294128639758, 0.6934057867226756, -1.0839675040095504, 0.3453946483133774, -0.07113422085964713, -0.3050839262212186, -1.0001602509353196, -0.2442159793116038, -0.3479616301155031, 0.13335685534077968, -0.005703981010386032, -0.29485323106836964, 0.06146007069717223, 0.42212691565522975, 1.1095997093960424, -0.15837268337932128, -1.5583120468190357, 1.4789869879774686, 1.8646698730033375, -1.0942721666272117, 0.5166211218032007, -0.4120355139752389, 0.8094760430197312, 0.7577868362156231, -0.6970858821979905, 0.19868813161002655, 0.5210969838925391, -1.2923400393274944, 0.3072175293390113, 0.38349514818879615, -0.7277407010216075, -2.1977062672607994, 2.045229474216485, 0.6944230209868197, -0.663429770754933, 0.33088665377226956, -1.02988163290045, 0.19987837291813387, 0.8841995273864836, 0.19259203735800637, -0.45673372112935234, 1.5151228324135326, 0.27038823127338957, 0.6576036794809772, 2.0026142261883977, -0.5633185694608129, -0.6599565306251362, -0.20811041573324957, -0.33900980455622676, -0.42392160448797794, -0.09434589071504178, -1.30620751207848, 0.8041187724882973, 0.15897203762138484, -0.5229525650947963, 0.7235057610235638, -1.5738736747162287, -1.8371719200072627, -1.2847295859641736, -0.9407809324378752, -1.58812071791666, -1.363842304558822, -0.058611449995635216, -0.11971464781444266, -0.47398666616894125, 1.7311367812322151, 0.07933155549663087, 0.9644664516565001, 0.19005216898355146, -0.12226295107975409, -0.5474835564384289, -0.5129764408771541, -0.6753547309504025, 0.6873259123554464, -1.4362327711172862, -0.18970796016018485, -2.731838035109592, 0.2926737798968512, 2.655544411998133, 0.9295112679107168, -1.1157376418017435, 0.7901573795964691, 1.385840920544157, 0.6300542336625105, -0.4979659499144914, -0.18031710997125225, 0.729313142759426, 0.2780863542482636, 1.1684297116671365, -1.0469404492105854, 1.567175604658671, -0.35334016630614434, 0.487904569418612, -0.42394479575356925, 1.4393540518068395, -1.4715977613676512, 1.7175955584214977, 1.0899183489656472, 0.29834251206902995, -0.40228995381966587, 1.5017356409698686, -0.668149704451891, -0.8850614049749758, 0.4659207447443717, -0.1860270618966381, -0.24233931907814088, -1.16957786143533, -0.41716670369986236, 0.6269506936086312, -0.5133388950702413, -0.19560950536889943, 0.43644199557572677, -0.3563203518274031, 0.1858902319488456, 0.9275243054383759, 0.4261403200954162, -0.445594409969982, -1.4496277348668851, 0.2768407781635825, 1.6113531482953793, 0.4325089890682137, -0.5312653666876008, 0.11869505929746169, 0.5403633520718139, -0.4940753238870266, -1.1988696930068476, 0.37909701358818887, -0.05388715762913845, 1.0312718434505248, 1.212799285657231, -0.11672909131421645, 0.25646768348991755, 0.40326904162534805, -0.7899394877956584, -0.6518198314874789, 0.06418480458316295, -0.6030467827928455, -0.6973849595722698, -0.5531191227045972, 0.04553593055974173, -2.1886127656360346, -1.5227030048143089, -0.7043354846671893, -0.3657801719364682, 0.1310490377925413, 0.1633375218783296, -1.4189694101563075, 0.7621464375356891, 0.5427019124711631, 0.33289568177730355, 0.15644341503309242, -0.7795349455815758, 0.10484138770335431, -1.2481104191673156, 0.6871513108077053, -0.8944337505877689, -0.44929597887853956, -0.3588950460296455, -1.2501783679760008, 1.2575019096372169, -0.822439898377134, -0.7312691620367465, -0.8382695004181822, -0.038104762262492826, 0.08834076202111114, 0.48108477579365705, -1.749216529732114, -0.6121539081463935, -1.6099015740602107, -0.5471557752644004, 0.8972091222132224, -0.4958844293145708, -1.3085784703624355, 1.8362960743696912, -1.6155296399535064, 1.618402547788579, 0.4585078512932118, 1.152098072145626, -1.654572634684543, 0.8759069315282902, -0.5202746476928412, -0.965274064590324, 1.5624827363377003, -1.4932752767430506, -0.7099252927495359, 0.6640183799769869, -1.462534846610749, -0.46143328854863913, 0.4866472976761277, -0.14057742217024008, -1.7757085219695854, -2.142893195491642, 0.5089307978709944, 0.7642858407711886, -0.02202171981592906, 0.5140500878769511, 0.25661702042528717, -0.06604633744327607, 0.8854231494053115, 1.0093020471996643, -1.005977327789454, -0.36140465083218576, -1.1995377447872266, -2.5338038883467275, -0.22668855529608373, -1.1007663568276767, -1.2413618518829985, 0.8662624850813435, -0.32889362387662907, 1.5683863154032756, -0.5212135920383416, -2.1861329556120035, -0.5619414539337727, 0.7791025360409155, 0.47796765588708423, 0.6711974922349765, -0.6283316263724029, 0.5619584639561431, -2.046275385777961, 0.09577070297271112, -0.14056536217873117, 0.6832969194204626, -0.1939216998633297, -0.26034930130010714, 0.5360309564766945, -0.7698827644198866, 0.7605988193482025, -1.6804983238371118, 0.8368619508357192, -0.5231272773543576, -0.8877460130569932, 0.43692158982725754, -0.7672875464344007, 0.41440193593540425, 0.6699143920600784, -0.15204781078244975, -0.07295035591023004, 1.1267742510091192, 0.5233301930913079, 0.8589486150045481, -1.1011050830451024, -1.1291021153033656, 0.12085587710987206, -1.3514253964331515, 0.7015599412170354, 1.2221816058116843, -2.437090296726762, 0.9793005040281689, -0.051436743292768435, -3.51405374740696, 2.419148146421064, 0.4702094792004843, 0.14053465253311268, 0.9486946730424262, -0.12474415685422492, 1.1597947677415352, -0.6798364074356698, -1.1740630439716635, -3.724483523521257, 0.9692322390040562, -0.8322263792399034, -1.0366008588847113, 0.9751467921928684, -0.40696496284598366, -0.2228231417758047, -0.08457923038356974, -1.8526262957268504, 1.16867233432982, -0.3177334973988307, 1.340000125974919, 0.15279111814900548, 0.923576340141124, -0.20003163892823037, -0.6306140669477696, -0.9146139123359154, -0.35367316134382504, -0.22520616429439574, 0.9232681693389079, -0.2911208661112398, 1.0481655199740152, 1.1840569615087602, -1.1674230133810701, -0.39062965324661614, -0.9030169242052971, 0.24655555255170103, -0.8919235730238723, 0.698517657668798, -0.40022642459763447, 0.18700567330458187, 0.28759763623555046, -1.6040215992987916, -0.13849251849274402, -0.748689096333722, -0.780394620204405, 0.01161756533987961, -0.49100843149250095, 0.3129021044886668, -0.7669760760752624, -1.1131731691618434, 0.5159640439069921, 0.4870595241447527, -0.4562098017370738, 1.764247863966855, 0.8150629883683979, 1.1709877693833912, -0.7223712946744559, 1.7547429904758032, 1.6543048326775927, -0.5151696532881537, 0.5662898618481225, -0.6667730301463789, -2.5520237147986955, 0.6205002283228045, 0.9408331297888516, 0.243683590095623, -0.6631057590433492, -0.07302532224238388, -0.39144874869897106, -0.17527384780538502, -0.8027352108200597, 1.381259869035167, 0.07743849841835225, -0.24735583205266995, 0.1982639193271695, 1.0812222606929252, 1.8515580846097726, 0.7861328358398126, -0.4249834945975011, 0.22158969147705235, -0.5952778752937076, 0.19486317259046687, -2.557639803753547, -0.7645167961880144, -0.4205210020361092, -0.23680073986479022, 0.3702694903990237, 1.1886276098731619, 0.5268462579713558, -0.38231020148251793, -0.6497688495136907, -0.5035858200857548, -0.16708813165426326, -0.7240116115911672, -0.47195656478147546, -0.8084827452823306, 1.2577163148219381, 0.9765707942466938, 0.06982690602988254, 1.0698997121141223, -1.2922088591474954, 0.3327064250532277, -0.5710351095556699, 1.5282385999221884, -0.5745795133233819, 0.0365449891955769, 1.20483850032891, 1.0024077010649557, -0.0835409545128469, -0.9507174846553567, -1.9304765004528157, 0.06360995446338719, 0.5224775216173118, -0.4730853327645872, -0.5112085951704104, 0.2734066604311613, 0.6998755143964998, 0.8856218954627921, 0.6742098051558064, -1.2544532328702944, 0.3811430941029145, -0.7082949777613582, -0.04676763159528903, 0.10975764165685381, 0.6235482473075312, 0.14629239086826237, -0.7293040287305473, -0.1617030673931565, 0.14597290165544613, 1.7082172480387312, -0.7787343618249235, 0.7300363185149155, -0.6678820238092162, -1.3553878917493616, -0.40139184473508216, -0.32750344102422907, 1.2250894867703008, -1.035718030015019, -2.336497070456422, 0.6542791754925017, -0.6634392098955602, 0.31045550287613405, -0.30242319638935894, 0.9007124661132666, -0.4757525335544078, -0.2620439901209617, 1.1835109384324987, -1.3027901575101948, 1.583089986723898, 0.8174219448127271, -1.4989285667888312, 0.3429322449833788, -0.6918164617780289, 0.8431438231818439, 0.6291953065863106, -0.6227730878428482, -0.6513328745432329, -0.7888122029531314, 2.688495357606092, 0.7756498488878334, 1.0080832137521334, -0.15514510759441447, -1.6514170856414796, -1.2620860248497359, 0.2818980300078443, -0.1086552707629164, -0.1199417844189723, 1.153575464174768, 1.2696839297164555, -0.7629031247006582, 1.0077736286559786, 1.1666406314733664, -1.3716342908263601, 0.9099784952454272, -0.11853777496661796, 0.6190549876113615, -1.1313061689695625, -0.8954515645078167, -1.2152193608611805, 1.075829272989418, -0.6665465676615516, -0.6597493760287603, -0.7086830742532203, -1.1545490630991968, 0.9008360347102145, -2.7234513022873523, 0.8155158190443669, 1.0209923960400322, 0.5437821158866216, -0.14122891408870802, 0.9485300331838173, 1.1430845511699308, 0.8620506732939403, -0.05958249629073364, -0.29962462287613106, -0.05428177256526344, -1.0529196609560898, -0.392682306024377, -0.26761741683432794, -1.518021024972436, 0.1467538375093503, 0.3101451594552898, 1.0466791264002615, 0.8960400066881082, 0.33533520132412986, -1.8652465422848001, -1.074565220123218, 0.2840469173677421, 0.9120824159633364, 0.2408046467237377, -0.144580182298594, -0.6739192675110024, -0.5752158449093779, 0.4293922682445286, 1.491514712852929, -0.24123717780512824, -0.050281168323638194, -0.6377580418142333, -0.38260410249214616, 1.913352930918209, 0.19290006725736455, 0.48570145831289346, 0.10282942651939934, -1.5373568168638287, -0.5896593558428495, 1.4925007978090739, 0.4316862706350432, 0.10860377361224692, 1.6922619074127592, -1.808425486747887, -0.8834512348871838, -0.7853500339169288, -0.2798405761402873, -1.19679712189541], [-1.67987875755034, -0.7637983702070487, 0.046607660305599555, -1.2194869623852074, -0.831541751947651, 0.3023604131871385, 0.22447814447863287, -0.6555557924827571, -0.06665464205399423, -0.36331805836146036, 0.9297822001315771, 0.4802954271848343, -0.43317127254608645, -0.5598614200677919, -0.5772186129375042, -1.5333441357518114, -0.7147539673992785, -0.31308378286387656, 0.16168130887033802, -0.29132252824698257, 0.11893846324943091, 0.9461306205021127, 2.731931954317272, -0.7350849968746763, -1.1363993584327485, -0.24694104649627965, 0.9768771206644717, -0.5840246334441924, -0.2723613764159798, 1.786685537475171, 0.5799089595702909, 0.00574020235450589, 0.3865596165343355, -1.0977848767069427, 0.7826560996295268, 0.6838631809977723, 0.5263583318101046, 1.3402636757968034, 2.805725661629201, -1.83281489160345, -0.23719671822394664, 0.7160183385221583, 0.2905699486238847, -0.5472469705583032, -2.6890081901550142, -1.3407706387978913, 1.4893362883358032, -0.32947469370626253, -0.9962122429368102, -2.2281511392038382, -0.29425141265063764, 1.5118004603157527, -0.07178238956125915, 0.18801881286900077, -1.0338898390279538, -1.028753371800435, 0.7897759641183977, 0.8145436676782626, -0.45762147875813824, -0.36029689719231156, -0.829356572850799, 1.3396180866844567, -2.7670361165276884, -0.6827863103371807, -0.42765053430840266, 0.5469788138951315, -1.1612749846816233, 0.2505994065401347, -1.5852431872437267, -1.2392645882132662, 0.28194376796661536, -1.4570596013417518, 0.08083033124063174, 1.4057824291098715, -0.055835925717475934, -0.9805118994310209, -0.2918665698564395, -0.6054539691931605, 0.7957344725928842, 0.5835725908279444, 0.6064453905427672, 0.04987717455339888, -1.0578132725716105, -0.3395758219574792, -0.5757653324456784, 0.28377739149909226, 0.24041477496892077, 1.5941221499160567, 1.1938161094042732, 0.4805276616442537, -0.3940676556957789, -1.9140360875391376, 2.0480437105815628, -0.22261299234684523, -0.6112188535621494, -0.3298559153214905, -1.616790513459762, 0.12238204456169471, -0.11520179632807187, 0.4394948436103568, -0.7093723351873109, -0.9819483062667833, 0.3008651635487328, -0.81993423309483, -1.0345210568096368, -0.37396110716206393, 1.1341433352499124, 0.2055551326700255, 0.6422969235850472, -1.4928811639029618, -0.18441565574066826, 1.016711138277182, -0.024115081689888986, -0.6416635539336922, -1.6666973644922654, 0.743789512377881, 0.252703065244884, -1.1184729274390732, -0.5823528352518986, 0.6859103371059257, -0.8423983859500738, 0.4651257275575583, 0.7317789719982978, 0.4864716695197899, 0.7455126461564032, -0.1458714028478279, 0.14957408699395633, 0.5635665452673495, 0.10087678229577962, -0.8037357846388229, -0.6462805178431794, 0.09456375984201196, 1.942152973070548, -0.0683936484350648, 0.703757370533968, 1.5433722819023967, 1.4080466521796116, 0.983531050122698, -0.7757404132372938, 1.3115973603480062, 0.6885178767812569, -1.1338789588044242, -0.8509168886153679, -1.4401205685815668, -0.29122742621043035, 1.1538943920882203, -2.099321306015722, 1.998808926585896, 0.5770010613104193, -0.26719223279882093, 0.3335415799713237, -0.4972936605794495, 0.22025528721560853, 1.9764359463259507, -1.2530655426886523, 0.34915966796221387, -1.0857423315244408, -0.18226720633711885, -1.281037479705822, 0.3889337226343703, -0.7595814018286665, -0.4977817411783932, -0.24865314804445093, 0.9462690195771811, 0.3687221882410854, -0.18996961297727222, 1.2622838874975213, 0.39442839592352574, -0.3157638315112553, -1.2053984817193633, 0.10006823671587545, 1.4078709306624875, 0.6722646028610979, 0.8937025028667593, 0.16518345274655422, -1.204298831069902, -1.1542402802622675, -1.0170582387719116, -0.5001046156286132, -1.262924264738513, 0.6269655180200292, 1.4343639911188522, 0.159448813794022, 0.9594895903586486, -0.5248973928530161, 1.7912693580384358, -0.7092310716270086, -0.8628903717244368, -0.22021207291966408, -0.5157213185686359, 0.07269920838652943, -0.8290893462216027, -1.897035136722225, 0.5603842339915902, -0.7262329512834086, 0.28150451650980435, 0.7331789122196356, -1.0134451133548303, 1.0379514606252824, -1.1554155380189135, -0.3056162426966238, 2.33824773446507, -0.6455532778750189, 1.0801630412825733, -0.8800983344707413, 0.057442859415123955, -1.5085824340479783, 0.19692508187847546, -1.769767888886925, -0.17878499069703713, 0.13609650475911386, -2.200855805078615, 1.7782328386448882, 0.07714892667461035, -0.2519317790084916, 1.0511392951702734, -0.3367808322650784, -1.237663811677749, -1.3640096393055208, -0.2070247649435547, 0.2709405859140046, 1.5014816670793147, 2.005440695056543, -0.030452059703670924, 0.9123259189921726, 0.6831794692481044, -1.2497425769166746, 0.03804780168510904, 1.2029296648624357, -0.48373554659836326, 0.16990953519075888, -0.22922157154321116, -0.043973857818685874, 0.08210885761356929, -1.4153156270415663, -0.020631996454085935, -0.0469711969517838, 0.9645207422373233, -1.4029217501056872, 0.5081946687654065, 0.8150149843492492, -1.009506205855612, -0.11160846479683345, 0.8773407201264884, -0.6874849806806992, -2.0968612683175705, -0.39063056469223834, -0.3257316732500488, -1.45509576381424, 0.21676620527822818, -0.8140567311560206, 1.793064333773112, 0.5884593030784552, -0.6648757563734103, -0.657893427609486, -0.6460356364820038, -0.7837154779586945, 0.37843162111705597, 1.4259013409480241, -2.171621465459187, 1.255407059739875, -0.785150999779203, -0.33895588224558826, -2.0715162547401182, -1.6794512054248771, 1.0829371172793034, 0.47931384007210626, 0.9799812238738543, 0.4203897437490292, -0.7805137598035715, 1.294548617223364, 0.5365410493901557, -0.039923371281570905, 1.4986504200274033, 1.2447458472032025, -0.8675135386454528, 1.4337215046798883, 1.2035259771748714, 0.020804423747104495, -0.13152637699422873, 0.9782961980929744, 0.7926118181095025, 1.2379481178643799, -1.052985473031125, -1.346978099836492, 0.16198208773152223, 2.266982560413167, -1.087316443658024, 1.075512111035744, -0.35275069333002607, 1.0824434669903484, 0.7862092032448371, 2.0391196732353043, -1.1414250987641223, 0.246108298005081, -2.4310120407091156, -2.2771939470483913, 0.9847845782893748, 1.511800579994676, 2.865990542431946, 0.00865419397271725, -1.2410517560078584, 0.13815275877554298, -0.44766273579386373, -0.7254808007092841, -0.8317788581133735, 1.3651447355479465, -0.027633694124222508, 0.7924233409200439, -0.08333321575367325, 0.4310631746100792, 0.8207876050991672, 0.5882048583943378, 1.3746487418934927, 1.845112457419343, 1.5403136998894615, 0.7900038880570784, -2.2072600457126894, 0.9294527954117807, 0.5379591704908397, -0.15240310662857015, 0.784670001209719, -0.9983658274526191, 0.8598234686215852, -0.5639789181743741, -1.4949684055106789, 0.9179534293087591, 0.5278853418594895, 0.6989516292239871, 0.9744876076480975, 0.47308292530321083, -1.2366142427173699, -0.140089577209165, -0.9251343997100528, 0.7213043151234801, 0.9792904055758965, 0.24249658723430104, 0.4009696174553214, -0.36134910019625316, 1.9868159623316368, 0.7007795024246624, 1.428412742805787, 1.2880390851453394, 0.1920338637586864, 0.17440230449939062, -0.32214582069180153, -0.1019030010590899, 0.8233265417427293, 0.060726872582040854, 0.006348134988863077, -0.14067029632030467, 1.3243786743022843, -0.7176039602138929, 1.256753943821819, -1.7338266862681253, 1.5986598265426784, -0.7004950631457304, 1.2890934519331034, -2.3922458185555873, -1.2343457787735452, -0.729774952518141, 0.5293347348936775, 1.4015252585858253, -0.08444168651094501, 0.1640584286515491, -0.49965717331047493, 1.4555448547477992, 1.2662236310941948, 0.43957157047323536, 0.6399430351815321, 0.30658651499369477, -1.7400710564631887, -0.820140770508506, 0.667703219427731, -0.7212745120219354, -2.3506388860795164, 0.15390378778745017, -1.9696338735742323, 0.24326318567272298, 0.5434809787778248, -2.998802554205853, 0.6390167919989915, -0.47272055124882584, -1.9115239199496545, -0.3178983948079194, 1.5890371561009946, -0.19014001418890922, -0.5870930244900873, -1.927333507771435, -3.1025129558023385, 1.521255830267158, 0.21957433246555985, -1.0594675289079434, 0.5164183060545537, -2.5176375680338303, -1.0377772614890757, -0.718871520634937, -0.44972921909572383, 0.3317585938960081, -0.6120387052073509, -1.0190962931176426, 0.015737254264927725, 0.3413630257059083, -0.216683466573592, 0.47945039652347976, 0.7080521573997947, 1.09230509402546, 0.0406927471125416, 1.3706398596937464, 0.8463604462404688, -1.8032056389100752, 0.7673792468588104, 1.6969297490347865, -1.0712985184393606, 2.9582593934605943, -0.977796179026481, 1.2144586143865113, -1.7297696001199963, -1.176817475414672, 1.3194904559932996, -0.9821017610401095, 0.47989154630867836, 0.022993756689400173, -0.6330206298558954, -1.209018361688538, 1.3804921678028295, 0.2559050551604884, -0.3532355039842927, -2.2111197482463294, 0.9166914905723725, -0.36404708635727284, -0.21434498533851887, -1.6532670349833105, 1.3002879252243298, -1.7732280758173473, 2.3977842976807153, -0.9076553161640748, -1.793972004643694, -0.4883801423310673, -1.1587269372605977, 1.531136680085933, 1.3358354241708275, 0.03749828924482883, 0.36084637110902573, -1.134496911136132, -1.2828799392566104, -0.3511797543929661, -1.977874696460774, -0.14266036010152597, 0.01326769438248018, -0.9967999072034343, 0.18828846627049867, 0.3712770627011177, -1.2407026745679888, 1.4725857590988967, 0.2167994642267666, -0.18589197139887997, -0.27096326119545305, -0.18086279290126067, -0.8705987370970633, 0.24379160629239968, -0.2574431314260772, -0.7042226295635489, -0.06015780662294975, -1.162419889040567, 2.1599295610102107, 1.0671375790035902, 0.7605961354397961, 1.18428484002176, 0.6607643096961731, -2.312783619035328, 1.4193637383183506, -0.6343332658317812, -0.39308508743186626, -0.09801871479777606, 1.9596604633069443, -1.3084634856282131, -1.7506026866065165, 0.804719354857611, 0.22903563627973805, -0.8358794894432077, -0.22071985435756095, 0.8019055022937859, -0.9489351958448535, 0.9376892648377537, 0.0442128339942246, 1.036072290813188, 0.8173008372434617, -0.0257419887074839, -1.0791709536048264, 0.02393894116787559, 0.7864978425156354, 1.4790683657481802, 0.8143875648944561, -0.42166693479113715, 0.8962111092129911, -2.12760220878471, 0.46686417808617997, 0.119173597348191, -1.3449620115910417, -0.49769326563398913, 0.5826454764928332, -0.8199513450577443, -1.0012911203076897, 0.0846138655968621, -0.2107224717981359, -0.5719447887906138, -0.29594248872194473, 0.35532077968079356, -1.0425303038963882, -0.13293638296137636, 0.7657758734746355, -2.9938093749307217, -2.8812338267087547, -1.3674129969630506, 0.32370902334905327, -0.5985671943151065, 0.46706657128855145, 0.7281130435683953, 0.8008851775428114, -0.6018156660481639, 0.2223363609390042, -0.40771804333913664, 0.859547437113889, -1.414121635717367, -1.3576140769725917, -1.171691580087332, -0.5251125518917283, 0.563086036181522, -0.3956880650962071, -1.088694153203958, 0.9047324808890205, -1.1572768526288146, -0.7330572114823125, 0.31946433759392173, -0.2754969846176144, -3.075964210174267, -0.18149091449412008, -0.4001410642842619, 0.5761455643817868, 0.04449435002035393, 0.9006596111155192, 0.4487062686143192, 0.7557688432875499, -0.4129632760816016, -0.35096413691441436, 0.5989031557500558, -0.1410730519109401, -1.3964804858253985, -0.19893088297582634, 0.7525846264259541, 1.204208629108756, 0.02412689577352316, 0.424895071127088, -0.6088177851090021, 0.007581450734675423, 1.412061202659327, -0.045698912729684425, 0.3834528721142492, -0.4128666101914405, 0.36100158430167145, -1.1843267357819796, -0.0570111772688989, -0.734168786237575, -0.6273296016585544, 0.5144441877663726, 1.5188703961766807, -0.0023650326353016784, 0.1716175957156368, -0.12585653659973295, -1.1666684580856947, 0.27493207822475185, -0.03291579173247753, 0.3089126730497385, 0.6123835070829988, 0.6620102100950374, 0.24298023893005996, 0.4159268137154637, 2.4180953162308887, -0.9898217522687274, -0.45177506661356537, 0.38182621595816096, 0.03096596774314964, 0.5054754537304741, 1.8766684114144556, 0.5021625440098101, 1.491058863349387, -2.293157658566357, -0.02122601631783419, 0.8261845801948686, -0.19206341074728062, 0.38560013402356147, -0.6879178336723337, 1.632107081943499, 0.6865935251921076, -1.6542097899690342, -0.7986368764263176, 0.6027598795058083, -0.06694870934545812, -1.4141622056586551, -0.9180991863857733, 1.783848156595189, -1.0148568770438295, 0.9876878594229261, -0.29771889668430196, 0.3752656694791445, 0.625857034666941, -1.0556793660755504, 0.7069911375701627, 1.178405399138655, 1.7635729114225804, 0.5504840936191252, 0.42900212051768616, 1.0376515840553167, -1.955842207991613, -0.5633126321385505, 0.4369923297820197, -0.06074529333076416, -0.584319622735157, -0.15133766182827169, -0.6670974988113088, -0.05377728435123658, 1.722115906249978, 2.082350021020575, -0.1589389303193291, -1.0167396861111726, 0.16169807016631624, 0.16240301855577127, 1.1848268832958373, 0.9310044667151126, 1.5709420026778078, 0.09625877130589948, 0.19799577368768242, 0.16708737142521551, -0.7306553860286531, -1.2259339892643664, -0.8343598714396389, 0.8449935979571943, -0.9185967305767027, -0.9588239099799509, 1.3855612065051388, 1.2065793489108274, -1.4097484690864055, -0.350930574871911, -0.29610693701072927, 0.11813424647434158, -1.0969425060666662, -0.6096725983179353, -0.6941933332873447, -0.46370410329466555, -0.7168926640980842, 0.025394868606784374, 1.3173279142869765, -0.26100854894181325, -0.2169304978725344, -1.0756482942629189, -0.3680212127077666, -2.4897882469511714, 0.716862873571499, 1.2434873602800565, -1.4465645584369455, 1.757665606397631, -0.6753089555086018, -2.1265546726912423, -0.5920874121263167, 2.279049122362909, -1.284691130636115, -1.0450154436948853, 2.543430057678212, 0.5783502108363061, 1.73206361866624, -0.8696027077189966, 0.9690300379931652, -1.0202852997690681, 0.4325505298762249, 0.6800508715266284, -1.5496087688021678, -0.17394330595707858, 0.47240444332463644, -1.2928987109109944, -0.25216503403923907, 0.7976934060501875, -0.43360844386627095, 0.601921151641141, -0.44834444635568815, 0.19052115753825458, -1.766664171989964, -0.31349247667530306, 1.9583032022651332, -0.539548766649956, -0.561954702505735, -0.5376412964667968, -0.2056313277216318, 1.140306666332217, -1.1276020031026892, -0.9322714032497244, 1.4420770255791735, -1.0170977146676383, 0.46640181911555145, -1.5345857387171293, 0.8274406815352906, 0.08733145500524052, -0.24601283013818057, -1.0277226072321515, 0.17506941298622436, 0.235977664452965, -0.09507829185337219, -0.42772483218064644, 0.993872278830042, -0.938754062084696, 0.007532159582786017, 0.31054867138128966, 1.4619023176137826, -0.8027167987995788, 1.3243683094431733, -1.2192792161469082, 0.3397394602515981, 0.731712116029006, 0.9542160479015587, -0.4548026708549421, 0.8244890058527375, 0.25047025797107597, 0.07894674713310863, 0.421603727208878, 0.24415674820244773, 1.7423176966847154, 0.2889648267470168, -1.1184745526843507, -2.075403644987837, -0.1684048504749967, -0.21209143897932922, 0.7075162514330142, -0.6092139108265576, -0.8276062509491591, 0.16895522182526637, 0.35022450633294716, 0.5568842862046157, -0.4350446573278675, -1.409699473017463, 0.20533291290186867, 0.6557109085057347, -2.203604817147099, -0.3878344289085569, -0.5070411425659775, 1.3099035912082584, 0.5148132891304389, -1.1475969215948951, 1.3039355330486506, 2.0567776921550256, 1.0591983273583125, -0.36190710523080083, 0.8801459377508024, 1.3259086344713504, -0.6762181975559783, -0.6988137002808842, 0.04146760265870449, 0.436707881955153, -0.047355510105605146, 1.3340475616318404, 0.0756288513561143, 0.2952734048579022, 1.3816224405143211, -0.04016738325322378, 0.2362189127907857, -1.1034101985596432, 0.17900861013773417, -0.1268653922620498, 0.5219509112778803, -0.4639243233491129, -1.3079962256629545, -0.11230884594938607, -1.7841765743158133, 0.3265620902149324, 1.660555101177494, -0.14282100242704268, 0.26789674950326214, 0.32110474127061756, -1.1907926316947566, 0.1118726233133742, 0.7103256758356019, -0.73202977755297, 0.1343807022391692, 0.22801152335533054, -0.7605786284621273], [0.2189490906089134, 0.06912983681264237, 1.594561280747242, 1.4674180957214051, 0.1352914994505179, 1.0754349130769643, -0.8846906062621325, -0.4725754414826996, 2.3761180718852852, -0.6575882717944488, 0.5377892778429745, 0.532085886231877, -0.3978587654348889, 0.5040812325731706, -0.5383990040941041, 0.4668271234288472, -0.522347907002757, -0.5130313296968859, 0.25382371627966666, -1.0469058469052177, -0.04196678369913951, -0.0805752098101819, -0.4973742256123617, -0.21447610642086212, -0.434109639948024, -0.9582671483478312, -1.7113757334364015, -1.1483963300617384, 1.3196252119462957, 1.2517150098461511, 0.1807800712964427, -1.2683401510144447, 2.438220025307627, 1.806399149359377, -1.5717085680871232, -0.1076273630752053, -0.6913798202565411, -0.9785343811992986, 0.6914549830811177, 0.0010815498396836293, 0.3766321522703954, 0.6673450549004454, 0.4196815892268123, 0.9396063602176843, -0.3977371068513104, -0.9800687836972514, -0.7461728047878824, 0.04887003705381253, -0.7458614204839279, 1.048780658907204, -0.179843548478008, 1.0571598991649354, -0.979210801466212, 1.160841392400022, -0.2750677002400809, 0.2812995036965491, -1.5604372266662443, -1.1280296896601965, 0.7082783782697389, 0.05602544114951392, -0.6770954379984442, -1.6780381525051555, -0.7381002128452325, -1.2307959525204706, -0.08471411049007675, 0.18044870103592206, 0.7319652471467394, 0.18203952911731022, 0.75169691476121, 0.14481024634833412, -1.0699517041163906, -0.4359828853480252, -0.06717508933326209, -0.9453414166738957, 1.6705695061242265, -1.3393626993910148, -0.10785396074783726, 0.8489164354054214, -1.6089599295398969, 0.04342344381457031, 0.8467722312918211, 1.2071923145805588, -1.263449634746585, 0.41836130254523346, 0.18702915020566838, -0.9764012992160487, 0.4093881486375686, -1.2091025632799801, 1.0839353105208658, -0.8572724458317007, -1.3627224784736658, 0.32536302725393434, -0.42764268292639207, -0.5195031039491578, 0.08013392159034008, 1.4338509252302676, 0.9572138377652655, -0.5669233594060554, -0.24558723583564424, -0.4818293490028041, 0.5493999642388535, 1.0687243032093234, -2.4596328930959, 0.400981620938283, 0.3961796232676372, 0.24780321227973415, -0.2460580648621846, -0.03379416210169198, -0.6649098294993613, -0.32636166146187356, -0.49651406049749885, -0.27721965885332744, 1.2566149913438245, 1.3918417906930152, -0.012011641505468766, 0.14599102536104122, 1.6691065857860143, -0.6187029313872717, 0.19679570114565445, 0.33970385714094853, -1.421462412217312, 0.7089868580667561, 1.1385646232625162, 0.8124532763735627, -0.1549619220734671, -0.46313328264167275, 1.490896743553807, 2.448280710862607, -1.693654144413534, -0.1461066606272711, -0.49828194437053824, -0.6389588921603294, 0.8357663480065355, 0.4465258068216757, 0.22646199476271403, 0.11166411108241653, -0.3694469660780494, -0.6591866606746816, 0.33190982397909946, 1.7361463856924637, 0.3116912056597652, 0.7305067019248929, -0.873941950086577, -0.12685724473929175, -0.8045467795011486, -2.2785939057782225, 1.0112028434279539, -1.2693641010036785, -0.2261663924157999, 0.3944227991827604, -0.8680012563588263, 1.4046545543178748, 1.5123333324493762, -2.757332679388766, 0.46990351512581746, 1.8744601753135248, -0.950989779538636, -1.6657403230204664, -0.06251783307763702, 0.2147829592274105, -0.6801553425451377, 0.5624325763503105, -0.2174128831937231, 2.0101167376146547, -1.3572543107090063, 1.985658718495495, -0.3847066959071139, -0.6425909152194614, -0.989901159434104, -0.6453498527672289, 0.33452336593886256, -0.3135264034945297, -0.5901510687892139, -0.6643656985004975, 0.5888238011135708, -0.014929684812384304, -0.04297516934673406, 0.13458652571362342, 0.9062124747391905, 1.2213688937814888, 0.5137240287655955, 0.26636004612763614, -0.0032278681494563484, -0.419348142270494, 0.4247645688457874, 0.6494933902227866, -1.7250225183009869, -0.6627625154043641, 0.5784342341896446, -2.277249470415138, -0.14920319654117412, 0.729232336892081, 1.104163064200113, -2.0041379547651132, -0.910861586742206, 1.3480914210810826, -0.08957918015961228, -0.6196240135289882, 1.4522350870956084, 1.298766070711672, -0.29471781231445127, -1.3990728339342022, -0.32007169618620174, 1.0115862404974294, 0.2317039120848986, -0.7959432615503692, -1.972915242026528, -0.9231695240672808, 1.7137120189086468, 1.240546010913001, 0.5096966319649016, -0.8299758808605242, -2.0818198255130547, -0.3460203149256202, 1.5274680129979972, 0.2608307685144274, 0.4474208394008539, 0.36787106307884676, 1.688382879309688, 0.5042384480989841, -1.369898353994462, 0.3129007989613106, 0.01102588108277824, -0.3438660980073288, 0.6390696808104445, -0.2649485453150711, 0.8040330616563885, -0.25299950311401936, 0.5228307586721395, -0.12949297410903352, 1.8256437763090394, -0.9523115654615137, -0.6549525991354401, 0.10063497705328128, -1.0023047357414412, -1.790298020959314, -0.1787402726199745, 0.5144672775802388, -0.6354766137254481, -0.24657153742642055, 1.7681246630493057, 0.5758404675387604, -0.690365152626238, -1.804582431932432, -0.12362461782207043, -0.4896370774597863, -0.17102896501315695, 0.3356635080590232, -0.10850377953217726, -0.06013874592749793, 0.35923910698366707, 0.25368827582349285, 0.6256817561527305, -0.6779564884754552, 0.3751388767798162, -1.1031328932554523, -0.7260450885261742, 0.6555536348068047, -0.3347637709673875, 1.3972660701361266, -1.8335830823410288, -1.1322253215084117, 1.3975178210550119, 0.33255841081877, -2.364702287614397, -2.019888648690616, 0.6153473190092869, 0.4786732320435036, -1.980635593552652, -0.9671852414626189, 0.23820011093486101, -0.20471627586541516, -0.934372092165316, -0.022945365830502037, 0.7922094683827051, -0.8352745893963862, -0.6638558881757038, 0.6239887241789287, -1.8571614131808707, 0.8040372237739379, -0.12757442501563104, 0.04226373745551915, -0.07088424893448966, 1.1140016779625834, 2.262589151968252, 1.1638292329687907, 0.4449441752201882, 0.13995706497836974, -0.011897461417875742, -0.8082841958726575, -0.5557418668469293, -0.7150063833552824, 0.21892429553136059, -1.386571729376216, 2.0056142437200792, 0.4014709787996397, 0.13560317823834564, -1.4873682192960838, 1.7299176473435192, -0.049986330581498005, 1.504819259366914, 0.21892280248220433, 0.16039349885357962, -0.07458786534570064, 0.33222308391377803, -0.31463449053708153, 0.4295365244480207, 0.4199464338299269, 1.2530855988764509, -0.7085792738839805, -1.3977945786291355, -1.0738667112690627, 0.8258618401928598, 2.154103237390496, -0.1565294907386509, -0.0909294829530013, 0.3730607589920094, -1.3302833032441534, -0.02098550848806071, -0.17025206217356295, -0.028071297024294402, -6.561130484803098e-05, 0.9127476015669, -1.4294704591796, 1.2332620486546702, 0.13918817906299308, -1.5248107809330442, 0.2739851105401781, 0.031207113266114892, -0.5464884854347246, 0.3898079412703981, 0.5048301345150403, 0.4338591570025406, 0.05365558000681447, 1.10248288927486, -0.6997011148834018, 0.6880145768377369, 0.4169352572113611, -0.8356412307696756, 0.4830761434633722, 1.2544615429383315, -0.1179864932633279, 0.8320343464870041, 0.7839110880402695, -1.2694083295135383, 0.6082992298961337, -1.5917909364379954, -2.3927027454127283, -1.3508575406050867, -0.05432424822230218, -0.4060082136409522, -1.0197776805357008, 0.7967249430640305, -0.28504871018322037, 0.3766807195210948, 0.21846744992092357, 0.6474712291267132, 0.16870688106937654, -1.4519853280570427, -0.38776426512950096, -0.36716168091638324, 0.5994197502234762, 0.37673572268482214, -2.144230688838894, -0.8591658833767138, -0.6660056066603769, -0.6934036185087697, -0.13977044655005477, 0.4002152179066911, 0.3606788298668703, -0.8845339078967956, -0.0365839197694325, 1.7838659163544972, -1.362909251602568, -0.34404535911194895, -0.08834884293183243, 1.2987231412362095, -1.2219776375333178, 0.5885509122054959, -0.9478801250273322, 0.2010260146499128, -0.36973924664884383, -0.5715231010752977, -0.7768615101630103, 0.6870399531063258, 2.3087316095191497, -0.46684276004639924, -0.48307334713298855, 0.5122953579215608, -1.0006688010478266, -1.8394455774918006, -2.101850229371248, -0.31584242606835344, 0.11912552498416881, 0.6591113013506337, -0.7317666549081764, -0.5019578499780476, -0.7678265224901314, -0.9975098860924849, 1.245340137893765, 0.8125947977593874, -0.3017938918302908, -1.6520005505037472, 0.09602380783138074, -0.19692528942060827, -0.1922045967995827, 0.09742974882321268, -0.3517024615938522, -0.13479120316687399, -2.512201573201913, 0.821671111346209, -0.48269819571708705, -0.15810841910922355, 0.3718678721294121, -0.4671231369526768, -2.2295092795491502, -0.3684912136636811, -1.6660238004472054, -0.5762799696928651, -0.09227088048633905, 2.660302426446565, -0.4087225852513934, -1.0291675254087014, 0.4864475880754569, -0.9399844131396486, 0.6441199372169049, 0.23386287305896541, -1.0845582166136574, 1.3228500043190718, -0.17580035864888469, 0.4094462215800379, 0.673318454080182, 0.7024397213634668, -0.6207308776007356, 1.450842911921012, 0.4759395996028441, -0.8718285731121828, -0.023017979865049578, -0.8396212903141299, -1.211387023010748, -0.7787603999657142, 0.9440604583067745, -0.4118915516097435, -0.6355906862543892, -1.7218506200575225, 0.884833408882353, 2.4302833941160418, 0.4466154501640102, 0.7609415597700377, -0.362324042956067, -0.24629893583725126, -1.6154326017917207, -0.3663308885405294, 0.3199067038535725, 0.38638829405687886, -2.1526486718156543, 0.348952211488741, -0.6773351604549619, -1.3127505606688148, 0.1547274872985301, -0.2449504332283032, -0.24291186340499707, 0.7060494027094537, -0.9556739750366767, -0.1979534572170759, -1.7161921083358385, 0.21123305307088358, 0.3837653770180834, 0.032736213054933426, 0.2604371768056027, -0.6186198264437702, -1.2775188331758833, 0.8987458444962833, -0.16877323771744687, 0.7834319200719995, 0.26440752369429066, -0.5806156796678684, 1.7010652740540277, -1.5698629436364744, 1.6928178158523746, 1.0358494201592119, -0.03999082958208754, -0.07986505073476609, 0.2764314337645394, -1.560065096023725, -0.9033338776550164, -1.1126318832610758, -1.5432332501633774, -1.5053300357396149, -2.123567902936694, 0.23776528222494395, 1.089478321236585, -0.2774181284398845, 1.0012740421808901, -0.29425345346592885, -1.5630469711505992, 0.8289277346571926, 1.574832454860452, -0.8649866244133596, 1.3891317114731556, -0.5336490305251488, 1.7825033194219335, 0.3012112962430569, -1.2198692634041617, 0.6672681796922363, 0.8829244874576497, -0.5914770925750069, 1.2276588130225914, 0.6166645427639649, 0.764856724283039, 0.045968023148819696, 1.0201830252922783, 0.2882463993295671, 0.37194814400644355, -1.3533054526341246, -0.2417448178093558, 1.267535157602973, 1.0432703608062375, -0.7208065135142044, -2.1136746003715836, 0.5637433590602156, 1.088187850422436, -0.46499131789519643, 0.3988588547960878, -0.022246562868905473, 1.5250067988513467, -1.0109743169932688, -0.6045608213458634, -0.917324764019752, -0.2702908288660141, -0.9462962381094927, 0.9278160138129129, -1.0848109644618114, -0.7984450747367664, -0.9364639531825383, 0.014617090057763528, -1.2534114831616423, 0.2337226370091728, -0.47464186420037685, 0.5399676593224, -0.7732540123478556, -0.7111213365473276, -1.37246107331257, -1.6252586362552792, -1.7593500294195734, 0.49215495597994563, 2.5972776600283534, -0.014345735845201164, -0.7247631974619011, 1.1281864309026794, 0.9028090919579268, 0.2986751052028829, 0.11686060308125636, -1.4682712539504046, 0.7551499971494182, -1.043106926989732, -1.146487190392513, 0.4724447569758207, -0.1539681779756448, 0.529514458273314, 0.26424200162639655, 1.025614411372331, 0.9532938376742234, -0.5901240232649819, -1.503431163403966, 0.12934261717454845, 0.5233576152441849, 0.9332001380854652, -0.002970655162891046, 0.2490936921347008, 0.02623796368503077, 0.5583573927719873, 0.41835303198945184, -0.05569339682325723, -0.8666374909017031, 0.12496940171672732, 0.6836570668280724, -0.8942215744364945, 1.5807103886020606, 0.2900359303336107, -0.43777980518428095, -1.387451818162903, -2.179814098783872, 0.5995975103129516, 0.43871726187706983, -1.4430824841195218, 0.07406153349624031, -2.2877885430305565, 0.7291302190387129, -0.014306844378072774, -1.3512777438717205, 0.13029051043836296, 0.42724431780138583, -0.2697246419155813, -0.4930475195000015, 1.0264196806176797, -1.0449806088408617, -0.3664676906337682, 0.7457428646707799, -0.2231305057607135, -1.0967220307536136, 1.0786593333143106, 0.3189206106220474, -0.6271347762215661, 0.6336385108910899, -0.1769494953344519, 0.2667065671491976, -0.8412005465721082, -0.43452795752239415, -2.0000532662871904, 0.10018806050006421, 0.46714899453594627, 0.3405343443212457, 0.10200657035282013, 0.9506021033500685, 1.5991723616478657, -0.5610331233602336, 0.03027181754372984, -0.5218817600377287, -1.4646108026537317, 0.36176355697117485, 0.5459728744708512, -0.22068839015248037, 0.10478493971359079, -2.3733525393209924, -1.7893088583708838, 0.828951847104864, -0.46576285115555655, -0.780211189529942, -0.03661187760380063, 0.9525877982954141, 0.629565299199105, -0.6893951382280121, -0.7999114432760264, 0.8063755710897059, -1.6090994691847162, -0.36660881246866933, -1.152171292106022, -0.01933738183032227, -1.2307664568971064, -0.7056820176189866, -0.1234286512101388, -1.6645735309020009, -2.4513508502238746, -0.8605311862339872, -0.546406211775085, 0.9457682471317703, -1.0908915161986588, 0.01578236807004017, 0.515527470520716, 0.46207003055893875, 0.1431936659059705, -2.550552332801837, 0.5777657978429127, 1.4960120627434268, 0.1661264854320338, -1.0028352554123814, 1.6773995511523456, 0.24928938760902114, -0.8745309484042623, -0.27158905424584695, -0.42609657629968223, 0.5381053432325453, 1.3042204152160037, -0.17847410222953858, 1.3123306632052905, 2.343678896926674, 1.0921501697031264, 1.1900242903877867, 1.141893309980835, 0.14967424788478437, -1.8032281795448408, -0.43314852794423925, 0.03910334701340758, 2.493191636850293, -1.406190024579215, -0.5037982683270834, -1.7404673531859605, -0.8951704918329394, -0.6602707793696899, -1.9731858600524255, 0.7503123518521777, -1.274951781179291, 0.28398915804517744, 0.3823019562816057, 0.49140752039072944, 0.33264645907735807, 0.19498819950195778, -0.34903510684064437, -0.4003057666171307, -0.11992653608841718, -0.31804470618944347, 0.6020096880981496, 0.7143580749123567, 1.4806754171638739, 0.1123041186199654, -0.07177126025308042, -0.882168603646782, 0.8102715734696263, 1.1484391308136166, 1.7726017627571025, 0.6919376329542892, -0.400541040309914, -0.8377132647488844, 0.5170478791504282, -0.5550569636179641, 0.4516683662586742, 0.36659635415499275, 0.4426229879543589, -0.05871003375474726, -2.220936191783988, -0.22582382626670547, 0.20970839948118156, -0.4603799042310432, -0.29535655730586213, -0.4276744043997732, 0.010738866976351154, -0.031318115592028885, 1.082345761470266, -1.7195522463566661, 0.6094201878702679, -1.353575330428598, -1.9931505160107186, -0.12192984290174623, -1.5933932801490718, 1.2741571464759402, 0.12191727191189491, 0.27676865978608495, 0.6430835434304839, 0.8239883874036217, 0.2758149061907102, -0.784131465426561, 1.4984447679706738, -0.8268368580066033, -1.3228263773759477, 0.5501521483376784, -0.09945805406071791, -1.2613104885258193, -1.611870748182539, 0.5930077042486943, 0.2809142982690297, -0.12346218407254575, 0.34684350271722914, -1.155587023417038, 2.6424746956926053, -0.19474514965447146, -0.3464168909631092, 0.4963403959650657, -1.4288244188392167, 0.9674170549067405, -0.6389578937540213, 0.4070001771463662, 1.7899897040878965, -1.040056826046696, -1.067910611070264, 0.7009542227797534, 1.2022267168767935, 0.3290138496084964, 1.3076929139162934, 1.1790626255489949, 0.8319665444323487, 0.1702623453824901, 0.12808870552925233, 1.33172349962246, -1.4008425028911282, 1.7465882971527071, -1.7926410167716957, -0.8179299383651277, 0.5669047564189993, -1.1332792922135264, 0.9416291067422826, 0.49309660779593106, 0.23748459204767267, -0.8558171420500282, -1.1567249212222481, 0.41891563067241855, 0.47957988417977965, -1.2468322849362465, 0.7401669072010983, 2.172527083024921, 2.7178082315838283, -0.6072586055439024, -1.3373392370930555, 0.22854946941024604], [-1.6992856975403718, -1.1931265039823957, -0.6531242708033004, 1.9476114786643335, 1.427853308979629, -0.6458520698782896, 1.2897180475267707, -0.8825350065806197, 0.9318896514623846, -0.22389790986786237, 0.1483504068429534, 1.3083099012648307, -1.9860351168479284, 1.4843983971488168, -1.1095945687173001, -0.32263419026770807, -2.1923309971385816, 0.9350308146686583, 1.3117470140066414, 0.8282250972114865, -0.7835236326827943, 0.6987964734642427, 0.4862080191768034, 0.3365691088930054, -0.6642134371987588, -0.8806370746640007, -2.6466870423428874, 0.5352156498324926, 1.5179733227249985, -0.28199088081702894, -0.38799358151729935, 1.3876024496314328, 1.6202176021338963, 0.6733528392836502, -1.4755274425643672, 1.1232188780271377, 0.29491556665844754, -0.8667783083323406, 0.34407729425389944, -0.23888638072817478, 0.1322579812493805, 1.0797621604832688, -0.5475405030988489, -1.0743826502112022, 1.3912324790560748, -0.984963560464071, -1.2303481386822517, -0.20567609525959668, 0.6348348182857475, -0.15190234530179883, 1.4366573970796275, -0.11385001379299672, 0.37281697184682, -0.732827012994297, 0.0031928708643106127, -0.06700885210810804, -2.28617452737161, 0.5606644010186163, 0.5282315833553614, -0.19097483836600712, -0.5934178033560409, 0.761923073674194, 0.16102956394517942, -0.5095287248497433, -0.158939936866896, -0.05912877301143807, -0.9662516095813284, 0.6643064377610617, -0.38491290619003177, 0.31686481340783046, 1.2280792478359146, 0.15957454430551055, -0.40404191358913083, -0.26973595052585614, -0.8425444126773949, 0.4295365940261985, 0.405160478491788, 0.31094511178168005, -2.534766577245134, 1.4784881890696946, 0.3018253850673341, 0.43542492385785053, -0.09656627456840992, 0.6803260760641113, 1.3172677273623208, -0.6369522306082185, -0.5812120152364886, 0.7832290489967544, 0.8934586189484461, 0.8300583616325796, -0.23636438646415744, -0.6834180510732656, 0.11468364083509232, 1.0624355243824857, 0.32669937907789454, 0.24329277412201034, 1.711268016836723, -0.1072673124066004, 0.3247802392827988, 1.9996369450186606, 0.6851765220598451, 1.175427173836717, -0.45192582516862395, 0.026628464487861648, -0.6221371289592107, 0.9204547116443708, 0.7606800816600751, -0.5516367703000643, 0.08130448494164977, 0.8824268516748855, -0.546782007950964, 0.18305253239145397, -1.7187931693982275, -0.271929936812533, 1.1486365532885647, -0.6536829515369817, 1.3583115613422454, 0.49266921677168274, -0.10140353408268311, 2.188377927717681, -0.43904243983101093, -0.17181585971635815, -0.10245908880521587, -0.0027189097771403983, 1.2328035643494994, -0.8723949466092346, -1.8716344484691532, -0.2983382766815421, -1.204761681951222, 0.6323237411693872, -0.4048955368500941, -0.7571341128311002, 0.6980529054506239, -1.7834055013893098, -0.9959634594299668, 0.2457017147708468, -0.7412781304897669, 0.24676623010724502, 0.3675191525559202, -0.06008955409536205, 1.1348643768883107, -0.9160190948741245, -0.5106480192148934, 0.11105595733543451, 0.5099003064622186, 0.27801950567425837, -1.465711497996989, -0.008838833452733353, -1.0980687542736436, 1.6124904679283332, -0.08783922430739295, 1.4076195544429653, 0.7237107984462865, 0.13076801782333528, -2.3584957339805834, -1.0166957301631376, 0.05085335793836439, -0.36886215377116205, 1.3376395528773597, -2.799625353482838, -0.08747942242083533, -0.8235848021239655, 0.14782446712949143, -0.006466478754725113, 1.5867556502143152, -0.4340176674185488, 1.5544141053258635, -0.8651557799454201, 0.2816198005893289, 1.1324502310635718, 0.20406085977115782, -1.667091557499253, -1.449236934933925, 0.9588967277035839, -1.4044258890969992, 0.7582648123169209, 1.479663763521715, 0.056905766731565006, -0.36102451387029966, -0.10084474198245273, -1.7221225091966346, -0.3021989627887552, -0.44136545960193563, 1.0125796021573228, 1.6922504497608664, -0.7301336875381461, 0.7633775281026476, -0.13499441474260757, 0.5584864630948709, 0.1488653321831834, 1.7443529011280083, 0.3873045805507439, 0.391335225450443, -0.1832721068390497, 0.9213253575534202, -0.7354742867939581, 1.756446620530532, -1.652163899192852, 1.4413365028372114, 0.7332308255166499, 2.647561480887769, 0.2431304807990349, 0.3859021501132046, 0.018540329224539298, 0.28734605005295816, 0.07697340337484289, -0.5292476128249138, -0.8429929969209342, 0.14293850683421244, -0.8558824094359943, -0.8764725445312808, 3.300446348238696, -0.11465109691183852, 1.1547577558219895, 1.3961596228797613, 0.38456612792411343, -0.6203716267390976, 0.43517411863884176, -0.6045363228139153, -0.8875765867666495, 1.3261569466933525, 1.3453338014830354, -0.8281344608432312, -1.219534358597671, 0.6567567067838601, -1.464518991112299, -2.9172182170223016, -0.6232886663952504, 0.8012396208614625, 0.24984505082588618, 0.021163420832297525, 1.5956930733035044, 0.3414384749350033, 1.2606210992599478, -2.63104819592366, -0.40325535522453665, 1.5977227466109292, 1.652006220515884, -0.13892617863647663, 0.043107500807694626, -0.3844200808364386, 0.3239168639201729, -0.3840494547031856, 0.033054357236334875, 0.18920820847520098, -1.0744103921183101, -0.09906384558639952, 0.6844506622481951, 0.2666125671764073, -0.626650895316434, -0.5810442334549136, -0.24229012166441982, 0.05927037870422987, -0.426927885517952, 0.8415601887063368, 0.9992960678401809, -0.9091886128882375, -0.13954808867814691, -1.8763038513874304, -1.3002959371193183, -0.49563288752153856, -0.8633862991634391, 0.9901842268257394, 0.4930357486741207, -1.2601722014037176, -0.764515184923079, 0.30309843442871576, -2.3150222391762334, 0.9100388189231966, -0.27443359391308714, -0.4436725540724371, -1.3844530786112401, 0.16907787736485136, 0.49619127526963364, 0.43741120238254105, -0.7794435530167295, -1.300055899963043, -1.0938007597878148, -1.3872811403779526, 0.579557584849311, 1.2626448141792106, 1.1506618042453436, 1.5746179800285518, -1.8753979735935842, 1.0385402597426372, 0.35438249457783344, -1.2800073048501734, 1.8800667250865188, -0.6251633294187771, -0.46617834863441326, -1.0944470298818605, -0.5553330626226356, -0.7989684591425185, -0.9075240667640094, 1.366651950528681, 1.2148729835237462, -0.315517412250176, 0.9721195914871853, 1.1032412211037934, 1.6469510387296569, 0.7932416985412252, 0.7608974698313267, 0.5127169195108223, 0.005542385036949245, -0.08208847737341694, 1.4335807039178305, -0.5795983917727678, 0.2762964873006316, 0.3476594681231516, -1.0610081660646435, 0.005810585063485277, -1.5381271908801333, 0.649092010898636, 1.1068396592175724, -0.4845314804981119, 0.4044699168096095, -0.11320863544234028, -2.3502559785620667, 0.2070584754242785, 1.6367352924767553, 1.4782810331294125, 0.4758364270014569, 0.7631510565313633, -0.0665482717655746, -0.5865281692194998, 0.09294801160753503, 0.7411518658865485, 1.5291837446483898, 0.9039508266722808, 1.890008293506134, 0.3634432835795146, -0.4403125260809511, 0.5947337050814325, -2.2286231309850097, -0.2984554903262608, 0.405444026879607, 1.5360254327886298, 0.7232016000910926, -0.33341535982276044, 0.3693049259506182, 0.4409496485968889, 0.5331549831444068, 2.1315409531361005, 1.0601345044925852, -1.0252412600855914, 0.6583760949124344, 0.045410234388227326, 0.321441319799025, 0.5642380618785494, -1.2439263861837264, 0.1916978601981589, 0.2842491736358641, 0.7766239191512947, 0.34485017462960443, -0.6398322220150514, -0.10508688856519809, 0.8294212720234452, -0.13555732429670214, -1.0751709700358505, 0.2548859810219732, 1.6394370882249945, 0.09090739690739204, -0.13746853547510504, 0.4580954741909305, 0.026754529812985067, 0.7633048340913873, -1.050427811240675, -0.9214160257685222, 0.3154271594980378, 0.3590530805945907, -0.5839076585984128, 0.7681454733191255, 2.0601615116091962, 1.716278465515467, -1.380122821178172, 0.5510847594110359, -0.1347175655255521, -0.4402317147085694, 0.5414218841842154, -0.864722677586028, 1.1753852701848693, -0.5250833211221311, -1.1072765028737848, 0.7895866359453106, -0.4601325615773441, 0.32537798134852036, -0.7994928952040128, -0.6220101627235869, -0.04262575845971775, -0.5565000820884486, 1.1534250958741368, 1.1267420177119505, -0.9004166495840498, -1.8311893998257607, 1.3758314612510063, -0.46522868429116554, -0.8113175785380771, -0.24873361455542434, 0.09589713195138996, 1.4041580390535584, 0.2515666745938155, 0.7200099555678002, -0.5502920019111502, 0.00854159002290173, 0.5717972938805328, 0.7086977514773508, -1.291907271932999, -1.4793720350881143, 0.8996086037739561, -0.36741868170540953, -1.8563092766842104, 0.924034291073631, 1.350556330464181, -2.0291773670021107, -1.4437921641709182, -1.414628928705958, 0.6165218445970873, 0.7789027490146782, -0.6694545414400122, 2.1837438188947518, 1.3860251637028715, -1.4222733892867077, 0.3266652410554119, -0.5495471016095692, 1.749386538514408, 0.611938398575371, -0.6543274474560178, 1.2606311188156645, 2.5255018916392356, -0.4271327938428605, -1.060227809625096, 0.0712313647554936, -0.41091288210084687, -1.1764603076532882, -0.11302230091892645, -0.09633954207922024, 0.009583358080422074, 1.4655190048461861, 1.415939284728039, 1.7384800653710015, 0.28215949530338397, -1.5796978530267267, -0.8316368940534216, 1.4940022769934969, -0.6054886829345278, 0.14882396521668637, 0.00808914863582293, -0.6843720791753395, -1.1884580531531959, -1.2827235398709549, -0.662149870146965, 0.9946667086261555, -0.059601399231018586, -0.17193723433617966, 0.5678778490147703, 1.5744835335952725, 0.24075949613857084, 1.2419672651112748, 0.5404768753095216, -1.3847625383255144, 0.7314355553397841, 0.29790137978007325, -0.5993820484333687, -0.012170050356825638, -0.04651184257914977, 2.103744811415525, -0.5261961148653036, 0.28514015983816215, 0.8838936474097604, 0.6178885720066114, 1.1463635588432344, -0.7152514093454856, -0.30748525440731234, 0.06317134744627434, -0.6748712379664579, -1.2527056611608847, -0.7074769254836968, 0.4613267485500562, 0.5873992955928776, -0.5580688931068893, -0.21428404442974602, -1.245068676277071, 0.1579983080261883, 1.155371640990957, 0.8552907450740517, 0.64141933671006, -0.1685543680669314, 0.44558757127232435, 0.5486724730544569, -0.3016873412715815, -0.3052132293885277, -0.06029691434942284, -0.6468938897764358, 1.1703034941396078, 1.2212406730738508, -0.300780833316865, -0.23602251905337707, -0.9040254355956432, -0.35654779533445646, 0.6486821524935366, 0.10094748410580348, -0.36189205157695703, -0.15776837315081438, 1.1222824043501765, 1.0782492247165512, -2.4814033687914896, -0.4189060767179915, 0.9174448418129234, -0.012739668181546154, 1.6660596778899546, 0.9793110464799454, 0.22761681922959423, -0.2779462220279211, -0.37286050884653804, -0.3159912842639551, 0.1209133505764308, 0.7171967020166935, -1.2589487254599592, -0.8025653377313369, -0.8989005742636799, -0.09908651293530428, 1.7650916706181707, 1.4013662091616914, -0.9828622166538482, -1.4364470749541782, -0.9557050532525041, 0.006032796759078772, 0.5784385027065323, -0.7325266594307156, -0.5891047455257327, -0.629702984350857, 0.34370848766816225, 0.09695847508754246, -0.667675857863477, -0.9736623644830604, 1.7851539487955228, -0.075990083200173, 0.506737452764556, -0.18610229485107355, -0.802310796579004, -0.7435161433082684, -0.5404774069134592, -0.47002005514521783, 0.5199748059565635, -1.0629128578893237, -0.5420130297135792, -1.7927797857432868, -1.0708125479666621, -2.5633242884512746, -1.1456096149518031, -0.6174514798780327, -0.10474930237819481, -1.2723118197321184, -0.03442298442852056, 1.435916728120566, -1.3010381776622744, -0.22125591691896204, -0.22353819335151184, 1.0179996872930246, 1.59820526101171, 2.3276620762538323, -0.864398573128336, 1.380009552588115, -1.6396215996742318, -0.3186761268929373, 0.6402254505636024, 1.2353626272132239, 0.12329450400636591, -0.7638403412715099, 0.18380889879836818, -0.9303249369507635, 0.26496973554246644, -2.6678873047932177, -0.7979381624970652, -1.634428050987797, -0.9161569469814443, -1.046131188025615, -0.075326491577838, 1.6805904960601212, -0.24413581363791878, -0.11715969498803094, 1.3383600166536718, -1.421922178552778, -1.132824869660683, -0.11997390176758554, 0.6955375861283604, -0.3491076670107835, 1.3516032349205223, -0.6614939232328838, -0.12147301468661738, -0.42978351875342896, -1.4348722666359868, 0.8921380253832035, 0.3952461242436409, 0.7803861573376343, -0.4321637446611862, 0.10061013710107441, 1.3784961576643757, -0.5314084107246771, 0.49296393912343395, -0.47119967349986946, -0.09557786178262077, 0.6650986803804092, -0.3376549759887878, 0.1062455161665366, 0.7023687601441921, 0.7587233136648952, -1.9548566068400643, -1.3765264328905213, -0.5806609488129982, -1.8812416428480225, -0.16886071056925203, -0.6042059937315576, 0.5392696988868914, 0.4220198645335881, 0.28049923680706496, 0.4650378716188533, 0.8374333322568303, 0.110434309811111, -1.4339632958903317, -0.6016285068055157, -0.9329108607460337, -1.0898738069530687, 0.4519605094464798, 0.5060492450983027, -0.5122969611741963, -1.2560141382146306, -0.38942091795263045, -0.403125454720788, 0.32067666964545555, 0.5253323337507407, -0.9853931825078064, -2.200330467430888, -1.0964340114570876, 0.35673723951411007, 1.7509287266199116, -0.21092107375924563, 1.4224171183073964, -1.9513730555647655, 0.22037137951622837, 1.1502398997454129, 0.9896527719790731, 0.5420334831446191, 0.8784070612260202, 0.29248312729726894, 0.6671554929964841, 0.5337271035108092, -0.5828430933856401, 0.4035439767380903, -0.7317663414133321, -0.8131544647824979, 0.05580333522506432, 0.5887383820386334, 1.043603389345631, -0.6425264122610936, -0.30898498095366284, 0.43901608135701065, 0.46019550454745706, -1.5262860552654942, -0.4546235971780597, -0.16758665995482855, 0.16344411939134418, -0.6747690470419041, 0.5645252068689701, 0.7191473668257368, 1.4513022592823643, -0.47235287257322117, 1.413285035869407, -0.43973253094916115, 0.3474510667905801, 1.2887800787226316, -0.9104371723290043, 0.26577828817014665, 0.05747577924551971, -0.005598912255622517, -1.1658194549832142, 0.40460684908630257, -0.43653804864036977, -1.9995564258916725, -0.5407545743089367, 1.6665544332633295, -1.9367929792625433, 0.6332496234661362, -0.1675405597567082, -0.16234400151681752, -0.05928408322879104, 0.42680879433074653, 0.7781300760001056, 1.173465255695492, 1.0775147247361136, 0.23346464332634723, -1.0061388365951232, 0.554841832350174, 0.3210181417570949, 0.1690682528826698, -1.4937847091061494, -0.24822925202430252, -1.2075192459504893, 0.4166230786430828, 0.17337506819328308, -0.9471035376662584, -0.1714853142371245, 0.4176328414291386, 0.46587259386669655, 0.19279141417578735, 1.6290985158065487, -1.0848460073248118, -2.320884142556396, 1.7832441055201345, -0.4738072075932586, -2.174135991056885, 1.223387166416772, 0.20847884591999558, 1.1874018932566437, -0.30996585247464525, 1.8525498061700474, -1.455119744028492, 0.33710849804756193, -0.8117326558311777, -0.3235498023050754, 0.43199872479612145, -0.9479670996003488, 1.1442026315798406, 0.6881191832206842, 1.1401552852463142, 0.29796973752245065, -0.46860653186481604, 0.23599651558308926, 0.3766200806433437, 2.1257927131059304, 1.7634788492621132, 2.0971818262765347, 0.699938444941475, 0.15706909132471047, -0.3308583704850919, 0.04859370576797196, -0.2019163406321277, 0.017961406011747772, -1.3137218246388445, -0.02547035998263538, 0.18412750752718857, 0.5632198299941473, -1.1417006998583201, -0.5158317642595416, -1.1688606565487267, 0.11064361623735566, 0.547516267393952, 1.6705108264639963, -0.943598280031345, -1.214068856786763, 0.8006306628529141, 2.531206202148343, 1.1761463253119253, -1.0240514435243886, -0.25560894936140416, 0.046915966518267405, 0.19602221587050425, 0.0914657005457056, -0.23862653413697496, 1.3279914292016195, -2.5483958399366866, -1.0477645639781354, -0.38113768236314693, 0.05347409401152909, -0.6043756647807876, 1.1788594418053397, 0.93790362104481, -0.10050977683552974, 1.4097552848079138, -0.6827849079438489, -0.8572814589461134, -1.053770695910888, 1.0901220136295604, -1.2485525356898368, -1.8820993424206929, 1.0561333609933075, 1.3953000862663862, 0.015955191338155195, 0.5545163308780945, 0.64486475545245, 0.21799167403361636, 0.3303607381783587, -0.45054106666229277, 1.3417755194603929], [-0.05800703188416698, -0.10462281180185828, 0.7499160432045213, 0.654934569288914, -0.09722403325327962, 0.8816400560101305, 0.8151344690082538, -0.655027402039485, -0.21237080009159554, 0.7261885378414805, -2.207513992263593, 0.5075890760960114, 2.0537287175808743, -0.208068359520753, 0.22901586565185583, -0.9238408184574985, -0.058460311909473595, -0.8823153504649754, -1.0026412338569108, 1.3543321061062077, 0.002015766112305931, -0.22888339620258058, 1.1506714353212475, 0.6821996082534536, 2.6247820565275197, -0.17995675042280151, -0.949202093691963, 1.3941605968517423, 1.127991147539848, 0.49145238755252135, -0.187507091751764, 0.8062556959396695, 0.11335044769187907, 0.26592391622960965, -0.37511545191727286, 0.05244810618651463, 1.1377874442746096, -1.102490785778532, -0.34110609785323925, 1.070635348703518, 1.3605881474878487, 0.30225570640360594, 2.19703037977302, -1.7159942610882197, 0.9419131707051259, 0.4437979583695265, 1.5933593514786168, -0.7173117541451651, -0.16798978693471583, -2.082778149622093, -0.39710509951633033, 0.30529104910469035, 1.3832981538047049, -2.410174645607168, -1.0111035730070548, 1.1208106947907137, -0.5900055822021688, -0.16225714943682962, 0.19950222513068291, 1.512512750044866, 1.9738271949459003, 1.3129356726155466, -1.0525351546690136, 1.3045769444685291, 1.826526350003402, 0.09782460565484785, -1.1621136290129814, 1.5253734661102898, -1.4806342309796916, -0.22937081912736218, 0.60315862364343, 2.5038277661610255, -0.6522677416925261, 0.903315739158347, 0.783012933133219, -0.3989820595383179, -1.6897492607759934, -0.027449393313941344, 0.4688690540208894, -0.6658352246049304, -1.7844643380989527, 0.6481763701201482, -2.702721182601546, 0.33709790298839715, 0.14566855818901764, -1.3614696066761969, -0.605978330603344, -0.8288457024363017, 0.33914908245976993, -0.09968168031851711, -0.48196656807571137, -0.7795916783003957, 0.31975122903723846, 1.7272759937422064, -1.3138875843024629, 0.5043206025572543, 